function [y1] = neuralNetworkFunctionTest(x1)
%NEURALNETWORKFUNCTIONTEST neural network simulation function.
%
% Generated by Neural Network Toolbox function genFunction, 23-Dec-2014 00:37:53.
% 
% [y1] = neuralNetworkFunctionTest(x1) takes these arguments:
%   x = 15xQ matrix, input #1
% and returns:
%   y = 2xQ matrix, output #1
% where Q is the number of samples.

%#ok<*RPMT0>

  % ===== NEURAL NETWORK CONSTANTS =====
  
  % Input 1
  x1_step1_xoffset = [0.0579770961083437;315.271107360821;0.0437840304216545;316.220637301114;317.535;0.71;317.812;0.614;314.001;9.99e-06;314.177;1e-08;59.19274555;87.6051384;314.788];
  x1_step1_gain = [0.974340931024054;0.143731294208247;0.795153604720423;0.148857930220503;0.160423518087752;0.0207784651986681;0.164055450742351;0.0150002625045938;0.144938038988332;181.983455884026;0.144164924673827;250.000312500391;0.000302707182143098;0.000243460100513418;0.135971174111088];
  x1_step1_ymin = -1;
  
  % Layer 1
  b1 = [2.066407580586521;1.8936128971355266;-1.8105447311047635;-1.7722192374764285;-1.8395154851306068;-1.8188798025091442;-1.7658821499128534;-1.9000662526397898;-1.8697111237678632;-1.8133599757182051;-1.6514589813372085;1.6721171602202907;1.616997765315588;-1.5855262158497487;1.6374770562419594;1.7125274407605953;1.8569123901308047;1.4856263928934728;-1.5092975537872615;-1.3344744077272164;-1.5580513477847315;1.4041293523702485;1.2096824605155374;-1.3520843595733654;-1.4377057971057534;-1.2773429237170262;1.2741063385157239;-1.2134416322002988;1.2551713766030279;1.1191891900850459;1.2015293191099967;0.98971972568909794;-1.0159753367094428;-1.1776368349450674;1.0064195243626297;0.91510064022764959;-0.91904276918223649;-1.1009808439678355;0.94125153423323482;0.93466907316651837;0.86033526347113021;-1.1097693519172709;-0.93893616893457954;1.0099729305486613;-0.63252411917617835;0.60261236958690645;0.84211501470744854;-0.86568690796503767;-0.57815932940229298;-0.55059994094430531;-0.577795417953613;0.61738493891940638;-0.63025625952924424;0.40212860937998546;-0.49597319234055243;-0.49929139502420605;-0.4662043421599108;-0.48056581819379407;-0.15627212114654698;0.32478184642205665;0.40425543121805446;0.54714163275688943;-0.29331804838482278;0.29774530382905601;-0.27497891973112598;-0.25111725603083912;-0.22352302115814446;0.42406383436146677;0.20443850504507541;0.077625084781978645;0.10317760827933473;-0.087497253245423789;0.052210523388786748;0.02926838540523085;0.047469447598446228;0.0095176264382097128;-0.10058564872619775;0.085872052762820214;-0.076672157482414585;-0.0059617727415021068;-0.13278773387441611;0.092124185874383258;-0.13216590273013915;-0.38564351022266291;-0.21323851934331609;-0.33767134930242976;0.38216336830134412;-0.30245946162405807;0.28540436839039018;0.3309915714931429;0.36154461832427115;-0.53337807891750133;0.34377464908867061;-0.3995048034508909;-0.4945523713480629;-0.53912803827506195;-0.46713619021852526;0.71850000018411719;-0.61461547923406767;-0.54500871552403973;-0.69199250689712066;-0.6885721734539304;0.6473503746210133;-0.73850441362725905;-0.87787017219719343;-0.80960702731128076;0.82679536868179748;0.83707052342298138;0.68636631343387999;0.94888741013168409;0.76984877585341094;-0.99646006104187879;-0.9587025369537141;-1.1227889502331516;1.1519853847881196;0.97056182635687849;1.0560316576023554;-1.1981309906344431;1.1486665658011326;-0.97433139342762531;-1.0650666205510044;1.1896670632783668;-1.2026185246295091;-1.4679090867515479;-1.2194788988341123;1.454644854997255;-1.3165956226099265;-1.389705767415589;-1.2502997460970573;1.4511713746719559;1.5579841344400256;-1.5619130935832937;1.501812719215994;-1.5500928691010367;1.7378901694503823;-1.5745684533127433;-1.653891506078923;1.6654393937458294;-1.6376094193064525;-1.5881658829505685;-1.5772859201862766;1.8103488160346017;-1.8038556601467184;-1.7729461290995294;1.7714558062063492;-1.8787284313717552;1.9847332296683706;-1.9229548451654945;1.9737985162014986;-1.9653114300285786];
  IW1_1 = [-0.27497704124233718 -0.33247881750327968 0.44176820920097043 0.42765131505025733 -0.31234064704858661 0.25493739475596411 -1.6988103432866082 0.2489111472938739 -0.33449751075892187 -0.36671533402312673 0.5819421275602753 0.24177269656869835 -0.36097530617579077 0.78802545071027619 -0.25934688274960049;-0.66140051943779632 0.88423748540665026 0.53306560127445979 0.32471858315290125 -0.1532203509327677 -0.72439381131057978 0.56927433285239637 0.17698019164314394 0.88690478603385869 -0.54493125146844679 0.36097957916943985 0.22031342036816198 -0.69401252095382582 0.011966869618710456 -0.094679763370275546;0.011036733804865504 0.70624378045322278 0.0025098140591549023 0.96462854362658068 0.5734774809507468 0.28109790732283746 0.61196559635255598 0.80936909403363055 0.15107704204481415 0.23487215122289679 0.011764074676984572 -0.28962428426361436 0.45930382422845034 -0.94425550503913613 -0.19672147588694483;0.83205668682809797 0.64940711360101266 0.79720654400827451 -0.18524569999581256 0.50542573325073314 -0.53852987479059222 0.10257543647115691 0.21382551565248703 -0.067270329438459578 -0.18724995760525101 0.76517032342819491 0.21597479003158682 -0.59847404549184158 -0.91154506859860318 -0.084232877350834165;0.68413253758681736 0.61743536296939072 0.59437797982225626 -0.65911374734303885 -0.23244348212175195 0.52153472248781296 -0.69518947305648193 0.30763238493732548 -0.1519515272092897 0.63836519823594218 -0.034437311217736119 0.50923435633213454 0.48133506851131375 -0.59293266387438437 -0.25783348091746755;0.77713640933416117 -0.58671904298095301 0.18609028696458685 -0.29125479022611606 0.7446622346922791 0.072331794823172951 0.75731410334102178 0.60324143198439562 -0.692885462695365 -0.041133925824152519 -0.3606575324040236 0.63334145496619609 -0.15089346794161937 0.45308890123106016 0.11648536761427508;0.58073060255470588 -0.24788877079206764 0.75090027684171079 -0.30882488891345317 -0.23012593239756285 -0.087146431257852472 -0.40027382020130176 -0.86599692551618368 0.43872509064653109 -0.25820836707569622 0.47003527571941545 0.66703119071262018 -0.16502687961442244 0.099926294426231618 0.87938134037067339;0.27213963196323898 0.49015849899566172 0.61921619519622273 0.035729582128975548 -0.52643165574145745 -0.44878765742364363 0.66652951486768897 0.38844393729155868 0.37224774705284558 -0.2918762692095867 0.75360219364568026 0.90005576797134623 0.10910923095427365 0.47314579430821446 0.36410842641498137;0.81271043207923765 0.2091543295573855 -0.17199051435309981 -0.72024050094625447 -0.63153384157315196 -0.22763859210963236 -0.10628583899956161 0.90229627295590065 0.42438274637120549 -0.1258140102602012 -0.20316828676464319 -0.74488943580564715 0.086999699185900781 -0.35232935807145527 -0.19535973603812867;0.65877516168896555 0.50352793186371925 0.85030061179577343 -0.56427693725078509 -0.22655503160549503 -0.031142980910414127 -0.65177860068534854 0.088454267178290441 0.2645786695729177 0.051378467030367352 -0.34867547943612143 -0.60257973785239238 -0.57948193028770822 -0.61839898654982306 0.17142783338210557;0.56026305682179978 -0.55883925856895966 0.72729765241333932 -0.41323420216391088 0.5546405764303981 0.65276505172359423 -0.64411444105891857 -0.57617075651296334 -0.68510608026544273 -0.44164927939348186 -0.52062317072203468 0.48862077467475362 0.39052694450525438 -0.53783433403851832 -0.18594637217430549;-0.66251715297795166 -0.33789506145811826 -0.25403154082065432 0.51332352612448118 0.24773172959293216 -0.033566934200417335 -0.24237021773580328 0.073989157221034468 -0.89721288065193883 0.89438569754016295 -0.88336122086602298 -0.066351637207370057 -0.51458851987327114 0.24798194063366255 -0.24406345606340363;-0.74535562099523345 -0.47154830718522461 0.49405856664660497 0.64773222489887794 -0.49187714862327853 -0.66085427002302088 0.034518351363628172 -0.46518969760584117 -0.24533331431153349 -0.11436436704329642 0.84553348853116272 -0.080691558235786706 0.16296734561621659 -0.82625826016334469 -0.11604442735966661;0.083746003032099281 -0.86703615243557575 -0.3233657139490077 0.2265512055017532 -0.32121874874521478 0.76473143653033515 -0.27239835099067655 -0.11076758224922359 0.73407290647615797 0.58938623785268685 0.55306626890263655 -0.33733130313470638 -0.21465755535582484 0.80001565492972615 0.42388026517439603;-0.77958182471289716 0.31467927246546501 -0.30515912952445817 -0.47884044940988685 -0.41180047347377075 -0.23830219368727257 -0.96302302899527803 -0.49271379119532405 0.40260032085140307 0.54657604392431147 0.18033798477160543 0.72931464039333227 -0.15855365258368764 1.0047009033540766 -0.26988263451411931;-0.19642140994570839 -0.43395519552432604 0.27242663656220883 -0.5465947976096186 0.72544540672094293 0.65644934796811572 0.38622290011954463 -0.86495951594100917 -0.38581304864913257 -0.64870003633776041 -0.24872158289097884 0.28011211942905229 0.43218733700989664 -0.41782884490111355 0.11358267936102033;-0.42382363148816027 -0.55225275069879542 -0.0043459785374478106 -0.6567463767541537 0.19041641607628929 -0.48890116826512098 0.0093258068364366273 0.32277341418796346 -0.2799331359396241 0.13773661424191283 0.53161673845974033 0.54058116431933612 -0.062087312419170218 0.47988306603230524 0.75686360007295528;-0.20158802453310132 -0.41045700454716766 0.21475400821774798 0.76548254214514655 0.11172504391279804 0.58080562295786931 0.33436630531511319 -0.45339737025983401 -0.64370815202827236 -0.4044938069138504 0.99851059562122135 0.10344919617337434 -0.37414299826014946 0.18195081111892711 -0.79726208766460371;0.76642159326222781 -0.50127895560630598 -0.3843146816563468 -0.91877297124315527 0.19867569904509666 -0.60295001395904335 -0.50209974343709474 0.2868220176879886 -0.76147395827285425 -0.99652497270576856 0.33807807259938721 -0.80105103102717123 -0.15668414979375217 0.7036134490831385 -0.34803087349659845;0.64335018912962028 -0.67342311469241167 -0.40016166884784571 0.89572851623217653 -0.15802559383736745 -0.51404345293185472 0.29245531998279972 -0.042576340872274181 -0.1052942324430703 -0.23789621108124556 -0.6053771744417189 0.42112594550819055 0.73943511032554954 -0.097253054876826062 0.85804707988088991;0.68251733208985221 0.18982904600012016 0.57107223758046521 -0.51639750595564349 -0.39939880320064691 0.45417825746627916 -0.073221866429120264 -0.54475334551815235 -0.26172811261795048 -0.57032818325607237 -0.031018598573078954 -0.1695436071345722 0.56925780088520417 -0.5391238461848723 0.72577086000822655;-0.40885378270133055 -0.88278782053571614 0.1511766198652249 0.043343556572491386 0.57336631619250988 0.3625816169048624 0.29673742605616427 0.66889176226419966 -0.47876351282928875 -0.65161313477988747 0.32805781586580213 0.6588664714499014 0.6816812769171483 -0.07650181548127713 -0.42334988922554534;-0.64836615583769142 0.25470472576305897 -0.0094577798369198385 -0.15337984018552958 -0.6698395631287315 0.77172385587857606 -0.59784789354620527 -0.10966458088376194 -0.95633338426390657 -0.01616009717597227 -0.51782329522850867 0.62245004257309611 0.88455426203223741 -0.26843798686657033 -0.19883829387395663;0.47675705314869876 -0.66098308888851165 -0.31718611465110114 0.45604330463008352 -0.62024822335721119 0.16135346728256644 0.59927751792956707 0.81846074143816772 -0.082532921335281284 -0.42486639756843686 0.61103544923768449 0.067487108508636956 0.38034301319121916 0.64125267020693488 0.48402951594838495;0.3697291446870577 -0.037903221945612631 -0.41969886532191486 0.81663817404046102 -0.37389900181589858 0.16269600435473858 -0.69827319211719796 0.19888445989432421 0.37326627384478284 -0.63499894139456659 0.23953787929715165 0.21690089905233606 -0.6963823740621764 0.72835225705685558 0.61435020165827403;0.19071743042977848 -0.55940124543508873 -0.0070394251092401623 -0.2406618457298384 0.55018196286677767 0.41805810734037607 -0.66472763753114594 0.58207600824038852 -0.18871295311991867 0.80803418081145428 0.67801384872529968 0.5439475531401653 0.7927958148863804 0.22632936887505617 -0.22618772769346604;-0.52096393176636446 -0.19149601020812007 0.23240726345627807 0.87324079348737482 -0.040148568426786206 0.89403769994617399 0.56356142723205893 -0.54286286112813642 -0.71045196205231909 0.50963487472781488 -0.15009765270014611 -0.43781510275749741 -0.084125816115868973 -0.52418876796901548 -0.25041927518508766;0.19132506956730028 0.52440595451837335 -0.57107296417234354 -0.4834602464740887 -0.038827365876143098 0.74584994032308061 0.97118207368440046 -0.64766472982168366 -0.44962124042775209 0.68337831001723648 -0.24115917579479251 -0.64661639068737964 0.10459629131439224 -0.33482857773132935 -0.18425685719629833;-0.6493215424666352 0.24465722698079517 -0.50971042694928137 -0.65286385364635724 -0.028979287053361186 0.50328592478061862 -0.33774693849932691 -0.5163193361742191 0.59513313757006159 0.6247239405345526 0.57748281187018968 -0.67019288335080174 -0.60535374839385037 0.046692086792111766 -0.3250259978494433;-0.0038725937240052313 0.67693636366002896 0.11166810237322558 0.69722230084203229 0.36846562551924877 0.30275629981476393 0.10017158838898667 -0.64999654217981451 -0.24920981635658426 -0.0032861405676124118 -0.96289522597563026 -0.62695797957409105 0.53975818845048829 -0.11248036222490726 0.8194574136871422;-0.73620933267445388 -0.4110897089720072 0.20264144153233776 0.61600034678736093 -0.097172013810056704 -0.37227713389910133 -0.65085791278690319 -0.49181852206608406 -0.5673580640334428 0.56872996755963767 -0.75253604111706762 0.20102739070319464 0.16839944826288789 0.63982636672621374 -1.1558734536632693;-0.33687652914608646 -0.042661685252422164 0.054689796542870789 -0.08614436308750581 0.4148297423454782 -0.59358467336959175 -0.59080605171938361 0.86841906634115029 0.67946173777594265 0.54485755690869264 0.79468970094147062 0.86399944890688962 -0.014622540381015722 -0.006626934150620642 0.37499104445576303;0.33942829201739388 0.44045345284155679 -0.6339763835526222 -0.97604696486676079 -1.042279199017059 -0.75166211438295183 0.41496577757769443 0.53962218162880493 0.38490372197706119 -0.27967324600539922 0.29490521992199648 0.38278432600698153 0.13223050144627502 -0.35590556865265682 -0.26436438154954378;0.49862216824388605 0.66366690017747831 -0.42139845041937385 0.68448769991903902 -0.31213414805531564 -0.67061969343984695 0.42575175015692279 0.7367437238792397 0.40560007801115655 0.62207991739915469 -0.27463242191030196 0.37084731454043807 0.27077238885719501 -0.12008700650080327 -0.52776906331449724;-0.48754216251531718 0.35405534294209945 -0.13514364475016846 0.7524904110180668 0.30766459175303495 -0.20887467210777722 -0.053623415196142304 -0.89671814866456612 -0.038549060060984089 -0.81100463158011682 0.70722494993388796 -0.12200349824115223 0.31049675897582885 0.90722810707907708 -0.070061123992852553;-0.15258918361963072 -0.7104813218677829 0.48655148500182105 0.13348683363185965 -0.14186654797991824 0.85544224158593074 -0.042710158115970412 -0.83660726302471211 -0.22750479091555456 -0.58876718222337521 0.53621542328061134 0.93118648512380331 -0.63915291484209846 -0.093240758715849498 0.4499632879223055;0.52092348797675003 -0.36698702161197261 0.56201885073422608 -0.098129212986500403 -0.1961145924387121 -0.32328192213320378 -0.27873608762160512 0.75210680353758419 0.59368051214460116 -1.0361839601488791 0.68389628479282982 0.1860463145966319 -0.16066413748864297 0.029986429579370682 0.75637111969946469;0.61639482905444165 -0.39752329566724831 0.37968257732073213 -0.79641621948209973 -0.83136530902180761 0.80347642193292279 -0.43610950382118457 0.14382768056377276 -0.64625277872808229 -0.32585775669387135 0.35961440495542024 -0.20454632760089378 -0.039260603180667639 -0.40027876367747073 0.097184384762009871;-0.99488017528536288 -0.48940390533309652 0.37318966691133576 -0.23026992339351326 -0.45612251565296164 -0.69606504717231055 0.5693030593303301 0.480413210023797 0.54213716085270436 0.048116652122642212 0.28620096829267977 0.02338094044242096 0.49602658409756262 0.10241664792232841 0.872735694221765;-0.47293104228747851 0.37099524924319388 0.81518494432241928 0.44527425252703673 -0.096347233038546795 -0.33443955182346657 -0.1468531597806334 -0.33935165284464658 0.56521059743550495 -0.61423155043336197 -0.63235852191091824 -0.46182255724279253 -0.15185430208973646 -0.50599441656541755 0.88135569556356819;-0.99492400006933202 -0.45261492295748912 0.11955547962525985 0.075618349514950167 0.26283835864933924 -0.3564733857023441 0.69760449502478938 -0.73354830463848208 0.33067289743616307 0.34223370469088532 0.85964617843155067 -0.5504238732985951 0.12082058759990286 -0.40213959284263168 -0.067874958074757075;0.29003057785248221 1.2136101542958164 -0.22400673773338295 0.19105526085521282 -0.36102209312239336 -0.57445285877460994 0.35508892739279907 0.19929291850978795 0.035946328057159221 0.97519741461802034 0.39471714040998751 0.84410157142156195 0.20678394185151858 0.34916592581394562 -0.058966756260648651;0.81346164760783646 0.59307523252178995 -0.43554927409992727 0.64293905250342132 0.68431343449986282 0.7013683517361452 -0.50423603798770977 -0.015126826861987486 0.63822441464359603 -0.31722563464941284 -0.43663206845425018 -0.21478877313958197 0.047204916514325984 0.093773316053258254 -0.59804525150972454;-0.19398586542384472 0.20640944919196308 -0.40480289242007839 -0.65600521170650594 0.62912952702070357 -0.41404954711623904 -0.4473780265899685 0.54707629598814977 0.56868563189411492 0.40567932185358285 0.85826289771533992 -0.18715002572527517 0.75107958157114485 -0.062048715778421817 0.60943215357381142;0.31734181009707818 0.58486568283187634 -0.11302298003854867 -0.33449046055844189 0.68827412890215289 0.51610455850648496 0.65207481635263143 -0.58618256222955656 -0.83434453809124687 0.23204783763979467 -0.7453810587726073 0.39576175581666034 0.076029111444627706 0.60457815715497565 -0.11524383347914365;-0.67292682128029246 -0.39123078558191948 0.23289763357644752 -0.72187453741316221 0.17151389010628712 -0.28642162255474263 0.31469203223892195 -0.33837333387673252 0.52717145033933988 -0.91564809606383901 -0.91217621754328682 -0.16575151388501758 0.52760105921171496 0.60436015057399839 0.50017981925870025;-0.21344247286000778 0.3562245414979413 0.78099814620586316 -0.75136363737419753 -0.28933245878417141 -0.42224671171981015 1.0048390114585384 -0.52576950741721151 0.28125900901883483 0.65260427747319738 -0.53741842945635321 -0.23390815640683427 -0.20913032011645985 0.69883614569203645 0.19245499266568955;0.54499094768073342 0.22645237989249128 -0.28915779221257526 -0.41724621472307372 0.46613203270269937 0.37936913131561972 -0.069635850870554655 0.87951512705760959 -0.11010982898468809 0.71706155562818863 0.018134519025790656 -0.73683391737978521 0.65881684344522118 0.62310925784999516 -0.064463365350117749;0.30770241206024385 -0.37171368146661676 -0.34643686062041695 0.42531233279295638 -0.10848094207472955 0.66937196670686305 0.47600345238230268 0.29934181278561778 0.050212846188329094 -0.74013657832335655 0.56374846321806127 -0.019435955217037094 -0.69016666684771799 -0.088520618293948389 -0.5942904602658422;0.47912932793609142 0.17971296822436869 0.0046344063791293674 -0.497698871915495 0.16091843585915128 0.7013373866439836 0.28933509074595104 -0.75264509200356544 0.60144558968923034 -0.80143301180762982 -0.093577931329854799 0.20826881459664687 -0.6213702435751195 -0.67325780287860648 -0.79990803439410796;0.77964233403528738 -0.70131591075527433 -0.52948667256343274 0.78575663451537348 0.28774069390853568 0.27470211758269175 -0.31608443051458496 0.25106579583730276 0.24973605823788511 -0.42766068356780229 0.059931793124195956 -0.62415208526564636 -0.61971919445279955 -0.7360142936548757 -0.92774269579820079;-0.43283540600576648 0.47022737782344581 -0.5409233795886732 -0.57152733782726461 -0.67208159982126281 0.57150172297223922 -0.63102558101062656 -0.33167783075331425 0.46937852248629475 0.71249112552018845 0.11068077926247193 -0.3206070097942178 -0.60928175722534572 -0.36442451917172047 0.36771081681212403;0.23414791205436433 0.43793825855097634 -0.70537450188150674 -0.2203403152853162 0.12213972737601121 0.73367728987897018 -0.81536114195722764 -0.076357133870129087 -0.85537170201130308 0.62532268144546088 -0.71378725950633315 -0.37145791971688963 0.55763479808070571 0.029049288349352369 -0.30151731065509507;-0.44078836636502433 0.35275571196839156 0.085851146792599489 -0.43014183218847019 -0.73979492105861244 0.45573734512080505 0.3790151113719617 0.88243505834806546 -0.24750972925401007 -0.48604924163592073 -0.14352282261457117 -0.56144881361374499 0.74168910326686521 0.14887926452220285 0.079125421986193767;0.72778100941313983 -0.90686862495080178 -0.35985848710429613 0.40352061738177691 -0.26710966950635995 -0.33247699513223467 -0.64569299586759765 0.051499855136928646 -0.54267685736880245 -0.11538985911690697 -0.46294829283363814 -0.46731364300345096 -0.34842597600586739 0.67926399213880606 -0.41330619289895093;0.46974708983676594 0.88272744441027162 0.15979007119559108 0.62069565213815003 -0.24691295658000162 0.26050456644677084 -0.68032612506992218 -0.45539465382457589 0.37748148165656564 -0.93401661807518555 -0.43495297449365117 -0.68238103652610504 0.21251697574148076 0.71188094020804105 -0.098400288078137416;0.58350891281458594 -0.68709326135496296 -0.46036886396676396 -0.36401419042727001 -0.5846656346343766 -0.29147561664445176 -0.49309426846151438 0.092642258357647153 0.51484386336033194 0.29169196567008132 -0.62673816636192503 -0.78415535989715179 -0.84898799650051537 -0.052030151341650697 -0.9533737761626222;0.45554525084042907 -0.3977896677803025 -0.87252256712058673 -0.57553247012021058 -0.40436386146570219 -0.11307610850922226 -0.20510074597078079 -0.62489127810949585 0.75132346870097999 -0.13600685606853608 -0.65418256292558785 0.14416141268388821 -0.81800956314483841 0.088124059410017441 -0.49913096700971993;0.43146733835776135 -0.52040273462754416 -0.22027170124820575 -0.85685972524957121 -0.8336999164811546 0.33525593989523084 -0.13273129976122083 -0.85422070848564668 0.25254825334339803 -0.60224050222521497 -0.44252471728629605 0.27946348106623675 -0.58303669869515928 -0.83525894318923211 -0.1013921956456314;-0.068202031300088534 0.058030700134588185 0.53159744243054208 -0.74404815177238104 0.25269961203223373 0.55468990599051238 -0.88824370036648281 -0.45704851875479502 0.40566283970471095 -0.49565788747530415 -0.44266484452356947 -0.16876302341961183 0.90812245993810559 -0.099652088526922949 0.28140745296968794;-0.53398623036230863 -0.56018941304588554 0.17345070961004977 0.62844231567739184 -0.068605879587456606 -0.21239530973804896 -0.23645117122931031 0.093542805347576641 0.75833024146617856 -0.8752316090243456 0.85858000626615361 -0.47144034157359782 0.11898970507500267 0.88695766160695244 0.90947430609617574;-0.53318721775498645 0.71844283293035394 -0.31862152294020374 0.63079071056159497 -0.45087181429114298 0.39472288397176181 0.23990119484099168 0.072402336967068687 0.35833712189139572 0.60059089688124223 -0.47880019168525856 -0.45839173234950892 -0.75261810846944044 -0.59609214813269995 0.57795494644324386;0.68072635927073044 -0.6997887667523256 0.094709428375391119 0.32998917554961499 0.11709950729016094 0.87490604118520032 0.47277993349110736 -0.08864223105204419 0.50613650797044019 0.54985727445147803 0.06385732769924507 0.48527857331793545 0.81711880761296729 -0.65288471912149193 -0.49431677775143146;-0.74532540337413966 0.23588461875176234 -0.34894947771467116 -0.18653418279251943 -0.81537466939984471 0.53902548678210949 -0.043998349515209575 -0.68034917747606438 -0.72559569441019234 0.19122436749141369 -0.54953046924960991 -0.62817868695492474 0.87269004434490327 -0.54189120787716916 -0.18736545796870546;0.31258207737740473 0.18580818541404109 -0.5675077705768784 0.59491108191270148 0.58979896248510821 1.017177685551909 -0.27968362912071099 -0.43982274475292643 -0.56367119520200371 0.43162192864663207 0.71217153909969289 0.31214054526513518 0.27637546982910155 0.31500290540489623 0.81552526415103277;0.52873606409472917 -0.34817815897227361 0.48252516269688345 -0.68925032168313149 -0.72426879425710822 -0.53763992164985519 0.65207588651550674 0.63462016371856966 -0.63366313388660322 -0.46535000402916726 0.64835944725198802 -0.31141809846521429 -0.058950618520847237 -0.058406763034497544 -0.36946764767045887;0.67976585325523053 -0.70517475931497675 0.32402454767972438 0.55246760095151959 -0.43129492844482437 0.59826011777976784 0.32666137172788912 -0.35477873521469261 0.55412589720973604 0.046940128787118292 -0.650490359291227 0.67964866824783976 0.072344100958234958 -0.19153777706314032 -0.68344564775675853;-0.1161501185823661 0.97054978825854898 -0.031544659665707332 0.32713889399812734 -0.44012614244948289 0.48273917303642566 -0.055000669242318292 -0.64287632057863298 -0.35178614195050117 0.60805601798288411 0.86039385792013301 -0.020487182659438809 -0.60793245933047957 -0.61007787228576138 0.47452670694023019;-0.71906987196733885 0.50248511205155033 0.20777077788527601 -0.53847728911500203 0.2486456603139659 0.39648977937769597 -0.55353529428660997 0.62722052722427746 -0.061807632080100428 -0.52531542665222308 -0.77835331507501049 0.61884114557769876 0.30588457117245105 0.67055918106932544 -0.35469194098186319;-0.17744554579152957 -0.79384154510714633 0.16862703375917171 0.24348636768041371 0.26395850057923226 -0.27162398320820436 -0.92964842973420569 -0.73354571866000451 -1.0030470216772418 -0.14828060076101682 0.11828808138860286 0.82523056222787983 0.54776362795707501 0.25026853838743651 -0.41344706609339504;-0.58879570484508859 -0.18982522478737995 0.28886026073689103 0.43335613055950267 0.59990708573618279 -0.25106296478732376 0.90532784885123962 0.10476731187594339 -0.58795696471924574 0.66986849718070474 0.77310248588899322 0.69414355257768401 -0.46147485158986828 -0.70575979102057562 -0.47589763450762668;-0.60095905577819042 -0.14435496952406407 -0.51264716170488234 0.16367487916472379 -0.59364772274674404 -0.91641311871370357 -0.25612550125715394 -0.33059487240977053 0.95095802593216461 -0.48962158206678585 -0.26108597898700359 0.12411510470521446 0.24870773833740228 -0.84115381111971532 0.088155899142269345;0.71147455914916069 0.29965269741098 0.55367971364147295 0.88316830376454536 0.85890245639115681 -0.11574321967339093 0.056532986522408304 -0.36225908327137407 -0.63054525740052303 0.091046661562283193 -0.42098332128633409 -0.65239967439182101 0.22953328076251214 -0.7967508741734951 0.06969192440972477;-0.63704704242566912 0.45709465877034328 0.48962358283053142 0.21847963939999521 -0.28724828868717178 -0.54356283497280233 0.077560971212112598 0.66021307105867244 0.646798038078362 0.39080711887389685 -0.65681784070724603 -0.89398073280104395 0.37876907957597755 0.8252074070211094 -0.30169948835374755;0.38177720154382688 1.0732249976397901 0.27441296798314174 0.22521221349465714 0.16288088707106035 -0.56469552231908327 0.84820665778134208 0.031783268942499526 -0.43556803508514913 0.50114662239140984 0.73515430461501896 -0.25713063630748118 0.72869104526153938 -0.30639244738484445 0.47964535125496;-0.22762034759389504 0.53773873540443284 -0.75606715612841247 0.83949498206185502 -0.5954312427433105 -0.3169584318028264 -0.67388980506681051 0.32259305683578821 -0.66378476267467967 -0.75308829810363243 0.44228463352475966 0.35564061612142167 -0.19042868113200687 -0.19955867006960826 0.1796093629839895;-0.0059257471738631429 0.11284875333565422 -0.57945344573006241 -0.72495373710839583 0.54212659674810004 0.81157154158044253 -0.67790185106351597 0.70794000282575242 0.16438374586540025 0.22387715035110964 0.34766830922995345 0.77657668307656402 -0.32878187807532644 0.27500088689181962 -0.47069100017475812;-0.80271351337823837 0.7113256785195603 0.28102206826445042 0.36887400104902568 -0.40235086720317154 -0.71070196809466157 -0.74182326369448326 0.047454815720693794 -0.6433758501692648 -0.026107900945633724 -0.13634600417901133 0.69512044071155976 -0.22013843949339565 -0.68359839578709003 -0.12831977123926308;-0.64018298120374983 0.083338835319339638 0.096398889882464533 -0.54703738292892934 -0.49230319605316486 0.27047620789454208 -0.56726917735402826 -0.32481515237190461 -0.70123874050324397 -0.15867657459364606 -0.44193933527450807 0.34802305940833733 -0.64812938012115395 -0.92279644851615128 -0.44094491917614359;0.71917726784047209 0.93299991846201902 0.066886174645412841 0.2902682030211664 -0.29738124656591158 -0.33440150521408879 0.59559606978783286 -0.3583075549243685 0.47678283950136374 0.33626898533755861 -0.85239029682701295 -0.55808553023394802 -0.095955406291610562 0.38232526588519883 0.06500313247505575;-0.6717402953678181 0.40870821989246753 -0.58897077927389141 0.23307968782484245 0.71809840114778778 -0.68156606770644435 -0.10342711720903815 0.32136854994997943 -0.6972889063601031 -0.32391847710431976 -0.56085269170928498 -0.10663974809006764 0.20966304833845475 0.015288996517706233 -0.64104374964748478;0.60928703051340094 0.54097675893055686 -0.09141413637969853 -0.97979888045909946 -0.57195156029782068 -0.72928676478708532 0.52735275508659896 -0.22637032161271073 -0.61685989159991783 -0.29708920964827584 -0.29741612387372512 0.64171854991344768 -0.3824184786543155 -0.32540551246921501 -0.033521189902838144;-0.15407101137158982 -0.17537358589124985 0.79331946819373422 0.015285016695449667 -0.51135172220694836 0.53517521329109019 -0.15179703588436225 0.8543270034684517 -0.59370874102234916 0.24893781310338489 -0.33483202204201057 -0.061038911763773407 0.51446526345685561 -0.65733447591529104 -0.95792037971641975;-0.035741068561063502 -0.82630275541107046 0.97547312205900638 -0.49353367414053151 0.14703923858890108 -0.38448733479738545 0.77167115034302081 -0.51044763501482082 -0.26399779411726354 -0.13745762949719889 0.046881609494991816 0.054649386294572798 0.19171263593731303 0.63810736607252505 0.7934397077049109;-0.22763584064396547 0.74704190521092029 0.14509903131034269 0.078764560921995977 0.25912693277417104 0.83203559294907348 0.71707265669294151 0.58156603996845813 0.45101578834532696 -0.46575825498196516 -0.25442417840707926 -0.68389386363539195 0.83341534186933985 0.33024374295710457 -0.56578066305360664;-0.82334216015728678 -0.043998484073711416 -0.33369416705094213 -0.014157889432682431 -0.47297451251304939 0.11113596983542226 0.73998086851256939 0.75827950998264471 -0.35043597819684291 -0.68836967802648674 0.53778465867022673 0.24043160825484039 0.18000738400104843 0.32692201340463661 -0.66756900584068657;0.45169804490321336 0.36701430260508539 0.53256033856571339 -1.0870608707380809 0.39242163145292774 -0.46709704231254046 0.052027543850498029 0.18211706118421134 -0.2305447495042986 -1.1941544867467848 -1.0251918813565772 -0.80562950774428921 -0.52287563684430682 0.23399231822662492 0.35903390719360084;-0.30001640885960623 0.14389009941308817 -0.85025414182253212 0.73080166955396952 -0.71523442834398143 0.56764040749621447 -0.1384402427750728 0.13744502925891292 0.15583514891701072 0.80954161237844025 0.53160979041861545 0.76860167800893275 0.22824548063019526 -0.24971585588282674 0.19557238924379688;0.56075633665428126 0.68974027496843515 -0.027494651364122318 0.55521110740476276 -0.72972784587440465 0.62242646641069888 -0.072414070231387614 -0.066302105896078087 -0.85914891797235116 0.85750070594970329 -0.57813943045266103 0.41924097571270269 0.33572383064743255 0.05305174191702975 0.3655210811869995;0.58286466695886285 -0.67224147796360201 -0.032666111836438312 -0.60363313975511279 -0.90073748703602774 0.19097058222846225 0.071851438934535744 0.90567928554067245 -0.35329393031532541 0.008256941556473248 0.54696266301606355 0.64504469024866185 0.12113570798546663 0.44520879698808385 0.47392869392380493;0.46265888861760518 0.44548144559032982 0.5027362974382128 -1.032858970772349 0.067566262283398779 0.69627877620981837 -0.14546506157637604 0.44948127222233225 0.079379500108151951 -0.86307832722711308 0.14866302144885951 -0.087552582175987131 0.45864042096980945 -0.37860305252102433 0.64768377037847313;-0.1335262070662627 -0.50453239706538977 -0.23429060397427759 0.91076327553516334 0.63652736491882 0.23558116737246285 0.8645396076804962 0.3996334122957465 -0.46837265612925938 0.24321930691738713 0.16272601787257818 0.95442673374934495 -0.23064921576312081 0.36696696737290657 0.16946981038785575;0.55888147702523094 -0.55910708253682639 -0.75106462856500977 -0.24329129307678493 0.052533422097247116 0.63484076303546766 0.34476778768476574 -0.076469312218678739 -0.32630387946252215 0.62364852101565893 -0.30796177309552042 0.69093289345430575 -0.74224270889579991 -0.60626919594159556 0.33613997004884633;-0.76704019207988805 0.30210750733080516 -0.11801578981549089 0.58861765935817889 0.13109133057871397 -0.87845108876023514 -0.32690847467261114 -0.72765055792249445 0.17334521233427899 0.44437816066185737 -0.23537405188298247 -0.87228986532587016 -0.1929132248325677 -0.086978088142772983 0.30141621845265593;-0.64275638712602989 0.0063306916482316605 -0.075526219448660906 0.61303148309331745 0.17802060418902219 0.63104528296688778 0.22593590061012839 -0.013216679553399387 -0.8960198110513834 0.73159173465196081 -0.26723933973173947 0.62283304324501532 0.63692448548605485 -0.19220322291732192 0.29426935284435107;0.031043962586842493 0.31654972629746286 -0.81112709039619557 0.39651719880957459 -0.14731943617577434 -0.606035857377625 0.4098410365222166 0.52915215915086899 -0.8263559468651106 0.73680685608859664 -0.44560250613963265 0.34603768784756589 0.64448511455694191 0.56720157486084299 0.22424396823856935;-0.76038652363188086 -0.87696342726058618 0.0099491244854932187 0.70475290245640698 -0.4089475395021917 -0.70413325783880909 -0.23122936093897212 0.23505683667772073 -0.25118254384164179 -0.78428553220165975 0.75908907293615968 -0.48747647984421927 -0.43916441206959611 -0.22889175590247618 0.32408114848615988;0.41879100489429621 -0.82402331648946736 -0.31350898384470138 -0.28060999640113671 0.091337581538791374 0.26158961631849625 -0.44444558629817671 -0.092255901613665342 -0.55881037687929858 -0.78890408430926817 0.18972082831934098 0.40705585579917358 -0.75715007296962877 0.71603536013580937 0.75243069599065582;-0.79112231126199273 0.23275510708128863 0.4869257314252412 0.38251301489810202 0.38723886843257121 -0.57397923226018921 -0.76347166553246837 0.072359341318381537 -0.22669383579836491 -0.22908850811330794 0.011981522469407679 0.70299170217305385 -0.84348688263393201 -0.199264563794953 0.85856090808675334;-0.80431617472370687 0.47640606341858083 0.8873454287213568 0.82272198741663138 0.47026741201137279 0.21773359747234255 0.68073110013405491 -0.45330413164453004 -0.1772877861571705 -0.82028477802628086 -0.38236582775751971 0.45469003243821909 0.50467497724405685 -0.2664355329180344 -0.13544569159899486;-0.20503233764721177 -0.50794400875634405 -0.39001960373078126 0.65291540930679826 -0.41973262381218474 0.62936776255006666 0.082510042251570159 0.40650895644081386 -0.27051788020401779 0.45967959683818371 -0.64601231845877238 0.12094413666938304 0.70155515098987264 0.67193486584224804 -0.73523589001637268;-0.55830034476671564 0.11117436903188717 -0.35990947841042753 0.75806725592878377 -0.41195162854605893 -0.60270349577988624 0.0048567199007843627 -0.60924827615411636 0.11370125074782392 -0.40318216238373566 0.84814779352278158 -0.70154096276541134 0.59396816391667362 -0.018539801208575426 0.66523979141872691;0.94628390273228558 0.13134371812187115 -0.7625602643129028 -0.82439906623822878 -0.74788277919430113 0.29231572477784357 0.37946875230511118 0.37036853357099681 0.16618484106099543 0.23745560525049006 -0.26469574732385698 0.8435456344950123 0.69622129016719125 -0.12353186039522533 0.33993544345206761;-0.29102312038742578 0.21162150631159232 0.50096368785782941 0.82963308435379779 -0.42517557694026875 0.22647761744515346 -0.54078254424626848 -0.63967507398974988 0.53120161836650792 -0.47511591132535974 -0.11483520537090017 0.71081993271048138 0.019540819584831299 0.16697044392563165 -0.60779620235107257;-0.10720573072859468 -1.0669267886462004 0.56924378514638652 0.26881789503975373 -0.32071908671432814 -0.15424346872541 -0.38819539169756162 0.29798073815950532 -0.26568295797952357 0.65482113597041935 -1.1582739213662321 0.91591590285691638 -0.049437402480913988 -0.53414511738083581 -0.19905727710127263;-0.40386916523416294 -0.39679208575593827 0.46376886665113065 0.17948776267180133 0.33278432097566873 0.80767604356072908 0.38102942525631162 0.58260786257710695 0.43314331252910354 -0.57389097349432971 0.65165316969065412 0.46340456206085534 0.24532782561628588 -0.26246150733478013 0.8383225393783762;0.13917507277459834 -0.66649746673619603 -0.30727548588875575 0.60125455793101112 0.19510960600583077 -0.7067482488316984 -0.17158814678494844 0.11692827581967821 0.23578967832581568 0.83775784854201163 -0.45910698622473328 -0.20298174351624471 1.1495183060399021 -0.7208505187906703 -0.61947935831515666;-0.091691530062476531 0.30630415190752391 0.11851581330200955 -0.045174080256783433 0.63213592481042202 -0.63874200217434629 -0.15140718874646908 0.46581568040015986 0.36418851482009706 -0.6698330810185309 1.1625458241456317 0.65117932420998414 0.77108592564317746 0.10944769506568292 0.28103851061964996;0.81710363338853431 0.44798265611581151 -0.02040877050619222 0.29751238371877708 0.28876082017342658 0.24866700901123137 -0.51980026425848358 0.02852606451083067 0.46287072517118999 0.3203676371433698 -0.80217923608950659 -0.14339558584034068 -0.731325845570164 0.60343678224710529 -0.88847258557109632;0.32451258548584583 0.93104013503713845 0.4945769100544129 -0.77784279911418408 0.98839931977971618 0.41635228736497665 0.33676735985859702 -0.47630404939092424 -0.21571739453279021 -0.4550996581205109 0.26664847858470564 0.17324053782621551 0.19797431255817285 0.74648828223028674 0.59925252860446343;0.36050450155632063 -0.82921471667424518 0.74920374685614199 0.21176592768735022 -0.72791408885290276 -0.21323040296865331 0.60556884452170989 0.92222369245836466 0.17795080788996812 0.56452732050137233 0.13734586112896724 -0.23871433978496656 0.28895811247275655 0.37854481858282929 0.15065925798624699;-0.64005896595487455 0.50419915374934821 -0.16272475220146762 0.17010950117334839 0.033181016925238234 0.73234202201388621 -0.74609685725847796 0.7122152275968523 0.42537309334439094 -0.59387466670906564 0.29050476307935408 0.065803920228410598 -0.53023222758852628 0.80983573381820706 -0.047025075777930608;-0.25156342093601813 0.72867911126855911 0.14846547440005889 0.1055220288431854 -0.75369691857987087 -0.99254484308505231 -0.50382266637460693 0.5882163374984869 0.091409238992596037 -0.41133317048984824 -0.09295544871640668 0.54687624064204066 -0.73308614018195284 0.91648961889880132 0.35412824587458108;-0.98406267782990409 0.16687659497771401 -0.81093054663403907 -0.62739979978432714 0.43136854610344877 -0.43271692006938373 0.053303705713073253 0.5855404652939975 0.94391876195413904 -0.45013623498427646 -0.77861133518655257 0.4793634527447187 -0.21806120984285199 0.42049195714721888 -0.28388098140570761;0.12536385027828381 -0.17563191944670761 -0.61266577375310471 0.87706948032493259 -0.33186988154641045 0.1760508914014626 0.73611453107792091 0.123301391935544 -0.6368339045019632 -0.19929760826126661 -0.31284216829969136 -0.23320766305317678 -0.8822424086938504 0.3785713933697229 0.62966927407626005;0.46663425602477643 -0.78879240275504758 0.46873222429726563 0.58922022592415468 -0.53409137721165967 -0.74227624923353541 -0.41413693159359422 -0.67355285359648875 -0.41166080928595583 -0.003843030850735233 0.63642557770703767 -0.6003422552365657 0.06877642894084024 -0.22034487309069636 0.31399026293935067;0.34232583573095343 -0.57533363146923056 -0.42628901429825194 0.36182101808376055 -0.40027535606715547 -0.71122744660301163 -0.32983069282956673 0.026956367464751056 -0.12632268424820678 -0.61774732603206395 0.64817822267781822 -1.0265033646082729 -0.62771978203464407 0.53902984944929533 -0.078420721061430124;-0.60315437244756842 0.36924296784845928 -0.7259952938672527 -0.59367290101748627 -0.60157643214804135 -0.20460965666649306 -0.72524103729014755 0.70468368643315937 0.05953996060451644 0.64344910034777769 -0.20272318988622101 -0.35145562110796952 0.037653466648496482 -0.60532433594984492 0.011905830794839298;0.11929529200790535 0.15659303082922915 0.48418643293906227 0.13573629397855069 -0.56181459927206201 0.59918839182580785 -0.72852606637882167 -0.57873848951985007 -0.59742273602082085 0.95789770327468071 0.50498300949321351 0.91671663817761129 0.29566607583781801 -0.19398648571192523 0.28119178442994719;-0.3906018952934549 0.46971297165539161 0.056403813199724942 -0.0435606970037659 0.82486845606757142 0.74107498974114316 0.15547263292389904 0.45072790798255979 -0.3336301303072699 -0.20255608119029397 0.26761347256964363 0.0047502862968707028 -1.0250775857193282 -0.51452474096231793 0.91094610503613371;-0.3490801491935443 -0.22955806202699175 0.2213719874736938 -0.62992955841555121 0.12245101411742755 -0.80082180134366987 0.46388831884921827 -0.62653172929256451 -0.56512861123296831 0.40164213620082778 -0.77718456619819065 0.15656377963524537 0.61212437511854345 -0.57769784769874766 0.7414918776025029;0.25286920675067887 0.52724286693481537 0.52983600593669111 -0.26374117082418075 0.24624230006554398 -0.46358378838220932 -0.42949572747154541 -0.14324486704136499 -0.66748344557017469 0.57338694516841882 -0.034365546759043616 -0.77578149485526027 -0.76831420916556659 0.68132105343481331 0.34383661837298135;-0.62903229745320455 -0.35196951485936723 -0.39982660599045805 0.50321042951252903 -0.53769424911812025 0.076812719798126552 -0.34693608857816005 -0.41312918090053635 -1.0715733936375753 1.0391774187738607 -1.0281200455990047 -0.59455062009565329 0.23673248517385465 -0.037722775585495472 -0.0028051306456691461;-0.18309549339930173 0.42201990969235986 0.36900304124021804 0.46885454009020194 -0.54481046450964532 0.92526960313763895 -0.8601778784574301 -0.16631068635627924 0.29251989821161473 -0.42595611732599858 0.27234112044265107 -0.49274020781459077 0.15195215482393507 -0.032071972561700461 -0.70874217221588764;-0.049113754525566933 -0.69362984419054829 -0.30653477441910215 -0.72117059374601333 -0.76319710087097725 0.85094204963574427 -0.34527367085854632 0.52363212573706641 -0.78364683848976524 -0.30458485013918823 0.69656841505762268 -0.56836362743760271 0.18279066333251359 0.38253257744412278 -0.55980253571797611;0.19830238940211292 0.3976258993342186 0.29923851462752715 0.2829189550646522 -0.12640327776808452 0.22873234689115415 0.61823633382327958 -0.99339227346073289 0.99224323400514236 0.38601690708489522 0.54519002217164636 -0.54091807913715739 0.75846038607391231 -0.092557543860514124 1.0963387776626876;-0.059238670493054396 0.46838500457944032 -0.40626073284278941 0.5883324918325894 0.35324826114294489 0.89753417136601055 -0.79105905969360157 0.3794844022044408 -0.47583207264524974 0.4999403537365088 0.44958005971288229 -0.71519859035832867 -0.27157366044835907 0.025252466266572779 0.51606154368842594;-0.14485508550000642 -0.32606431874915792 0.34821025187038795 -0.5328607047635725 0.4261367891944372 -0.26937829339492986 -0.64422277016639684 -0.10300586141394595 0.28395030313775915 0.8546665978670136 0.20814616619411283 -0.89345610661773267 -0.66246437408227288 0.33870488286095463 0.41605325620161215;-0.55494467329928321 0.031079515506054603 -0.3667968768559392 0.18247588103968654 0.19192860130824502 -0.63471037300232702 0.72993123454608033 0.061811435942264598 -0.07809299030001178 -0.12226872699302981 -0.60447067247412001 -0.58625333048234718 -0.85924796002688741 -1.1405760717719371 -0.14635104756182765;0.60793786115579895 0.69448589912506653 0.76229533959664197 -0.61914202972759813 -0.43253939274947983 0.076806662663316344 -0.55015668403847462 0.022314069143513145 0.43917610817619918 0.084270451218545664 0.54352801519249849 -0.71903489437823576 0.51513787583536208 -0.015699774269707943 0.78135884958959478;0.36177412294505085 0.079610412198712011 -0.31624258608296973 0.33445686009710762 -0.23957096140912865 0.023913995516030399 -0.023336750226234295 0.7330614327603211 -0.43146332887958266 -0.29779674900997538 0.39432076142625078 0.35018893479076579 0.48919187424218763 0.93764693056550374 -0.92921512529108219;-0.44484511328874055 0.41779116870752836 0.34240312831469566 0.48966022583245239 -0.50497218937063415 -0.31254100092969977 0.51004183967956984 0.64574986592820105 0.35597692754427246 -0.19196112977296612 -0.20858906168210034 0.80287497946997866 0.87583647153864908 0.20549355627608287 -0.29802369315668958;0.25368819163550799 0.18807044479722534 0.16156450075484263 0.022744708346493128 0.45144543294787043 0.69128376158967697 0.99153392191871903 0.12964881318853119 0.04203353272213977 0.30559319788252598 -0.065547486936109789 -0.62462952510224878 -0.52400515211261023 0.62779476724457239 -1.2646377567838809;-0.84421337675446884 0.78829490233761768 -0.50404349638228885 -0.072962840087927347 0.50482666394777032 0.5589492298389156 0.044563154868690918 -0.65465899598123356 0.57027664257750721 0.051363605433228918 -0.57405927231604059 0.14610648602272663 -0.039571960621967155 0.83067950522973344 0.30127006059541184;0.94019404261417217 -0.067253653702750271 0.06125530784572851 0.051119146202079094 1.1758701765726784 0.4267677236399422 1.1908942270737826 -0.12639665309641177 -0.33210031715816213 0.17592505436995567 0.17767998783281369 -0.24989084550426743 0.35560459717038151 0.50411217749450532 -0.21311966281340727;-0.91321540501208354 -0.67609552255340244 0.42752864186237943 -0.43956052097872172 -0.33357209249859354 0.17701777452860912 0.06631996732009586 0.4488313414008136 0.62025149653354117 0.10460905846052936 -0.49970465065048214 -0.59981585248541669 0.1247747138057837 -0.035240561300556028 -0.81383238007837089;-0.22567541129563229 1.10703848097612 0.22601079529586859 -0.21307332336878282 0.74703400477935211 -0.34432553013062334 0.66543047051571436 0.027269720387775934 0.87204341210463565 -0.6124278163081105 0.69558069477138629 -0.53943814630195064 -0.33107146498526402 0.4207316507951514 0.44970019312612064;0.2920883154911163 -0.12609537131340762 -0.55208596595238246 0.4836511139190201 -0.73714031106707012 -0.67788240675203093 -0.3112329073273406 -0.49416492180549426 0.1022552010198528 -0.5656799617633147 0.39167834875164187 -0.5703654283473959 0.4764109320982825 -0.84055926333345643 -0.2315381568376603;-0.80805822611044786 0.1172149173343935 -0.81535685037570316 0.063481907968944692 0.71904741654072823 -0.56295511447910329 -0.64557682526987148 -0.41422049302530617 0.10804063066103667 0.72809212849925131 0.29253428963167655 0.52740351715863198 -0.27306607595206356 0.21632779313746989 -0.86050800151366691;-0.050967516886711292 0.30842952351073416 0.62636855418954107 0.15639837213296451 0.36770053767982452 0.28752696356591761 0.2448969286199324 -0.83285976288137475 -0.60486981532572237 0.093400693213283384 0.45397032200552706 -0.10641362062500831 0.97716121672353418 -0.75463777007807809 0.87627169981855468;-0.65444390918730155 -0.67021477588270162 0.44812574933329408 0.77912646543066377 -0.4756293127357305 -0.34162400837100704 0.46578899320726286 -0.36038894265858396 0.14240947646953162 -0.94249352069381109 0.27829873131084204 0.42984027344695713 -0.45639975482418643 -0.88402907597961111 -0.61298925345335642;0.10375424393078345 -0.41743074815718323 0.44782272930356881 0.49847979096127726 0.37268836638858366 0.092616131237285293 -0.29318500110875984 -0.64203237570032379 0.40436977306682587 -0.5924425269441731 0.7775395153060487 -0.74203682436337703 0.5454352274512102 -0.77380351777698497 0.066097748198279169;-0.62358921289438285 0.44682581900808921 0.97008471753510206 0.013680844834585463 -0.19761194005907293 0.40640769506969782 -0.35248566623371791 -0.44476993565702894 0.70323568987010077 -0.96017518251240463 0.025812266544311586 -0.33674833486693423 0.50839798407732295 0.066801242302083993 0.49541128709111065;-0.17022307805165418 -0.82940569020759058 0.18402193037632608 0.54180008989976602 0.66909019055124508 0.41676335119803448 -0.75548331713824146 -0.072978953139646863 -0.026361829721303416 0.55995954176198448 -0.24624949487599282 0.64123464637095628 -0.035305582622699845 -0.88035404547938279 0.34537984770618818;0.6608539723523672 -0.74486464731676383 -0.089296877098352712 0.021239037910787597 -0.33661956124685943 0.43622815495660977 -0.24359596543400361 -0.61666439576307985 0.41602895938307843 0.27152789567439728 0.73271449280668077 -0.019764145046713682 0.26743221910622988 0.69433485851761068 -0.94547450580769188;-0.79004211296774407 -0.23488755008485407 -0.75745057749034739 -0.66032217192231124 0.13313181256770751 -0.63675012629811223 -0.11760222883726824 -0.65073163386804189 -0.35471784362592068 0.042190592034012889 -0.4804427108235354 0.7491641799665798 0.43369221223553539 -0.07974720700270739 -0.076042594261983718;0.4616032660165969 -0.44262842274287018 0.58204853594283479 -0.16075794248810812 -0.61989881578304817 -0.69308494785454344 -0.49389509222825839 0.35359924311763979 -0.9747626558820931 -0.17607743286164346 -0.44807364405436051 -0.52094793753844226 -0.3974424752767472 -0.70327612063570033 -0.33379065696187266;-0.28990493669154865 0.42694056813857451 0.49590183863089804 0.51814196125513257 -0.56733514134523111 -0.015472810660056072 0.6637492057005443 -0.61865876269715481 -0.62259375685513318 -0.38790952358938008 -0.56546358012461484 0.71870312104083323 0.45206673085485016 -0.33857101888430313 0.41018613321761899;0.58781090036310979 -0.71675022845184833 0.85128372060912627 -0.063943323551000603 -0.53776600204702407 0.43871413726762726 0.19481011647932778 -0.26884109960961267 0.54167880378766053 -0.28635654147757167 0.65917183233220922 -0.06073169279692095 0.88679980432785521 -0.54135670535683134 0.91802465144377399;-0.38194612874003225 -0.18202207656924702 -0.54943915869371207 -0.54099256831934039 -0.26139956518344998 0.16090403056285654 -0.15515094656906597 0.58169434840957557 0.60418652895236957 0.048337438824918366 -0.8481954935631032 -0.083539808148220457 1.0049973414998457 -0.55457851051500429 -0.48412124027453013];
  
  % Layer 2
  b2 = [-0.027627606366095101;0.65486996467490688];
  LW2_1 = [1.0394462134701499 -0.3526207466673093 0.10780887044012658 -0.70429407219002904 -0.042557423061910911 0.17890187235038651 -0.85737775202804944 0.7432713630165626 -0.086047906195119331 -0.029590340799608907 0.95747064592639886 -0.039467780589527102 -0.55668923304405493 0.68189616067614389 -1.001163654499863 0.14115908253824508 0.5040582955330144 0.70234758793058749 0.60404659777007896 0.86522486827062028 -0.16551110522473744 -0.21005699679987799 -0.93781370927641894 0.74749294667306077 -0.24634597682628484 0.6554603328684413 -0.73653287232506981 -0.20824136194473764 0.20640163607901343 -0.91143180114049061 1.0765891858206347 0.15419554959622778 0.9711044034259807 -0.12743062958785459 0.73455285696633987 0.40444598394383058 0.071828545476843197 0.3680890289707674 1.1206624668459286 0.04203145432628215 -0.83280362176977685 -0.83333917388770484 0.18507135604143868 0.82885653527746217 0.83359336766124881 -0.77327612193421469 0.89846168181535191 -0.48346461823775633 -0.83916783278010287 0.79499017372354663 0.72518861215172603 0.10130722258783068 0.30342450594426357 0.87985625251035227 -1.0931125908720993 -0.88947370893258748 0.42937782927543633 -0.7393509717039517 0.58171747413299424 -0.073602147445505556 -0.28584698628012478 0.65481522085053745 0.34173329699860749 -0.72505607495154856 1.0190727187931221 0.39785810838459795 -0.53981131982962027 0.68203162909793602 -0.18740573426568385 -0.38373947973720463 -0.016777391651540408 -1.0459113619486673 -0.39378887545049068 -0.17119427060574222 -0.55010610797001092 -0.40369426395662567 0.14287354533013596 0.086791184827688592 -0.82320415095062127 0.98616490124615375 -0.68118944349601374 -0.71273322701614805 0.88739798762617483 -0.78088966533831494 -0.84502976911148497 1.2899882716586533 -0.52557407442097459 0.22293236734565008 -0.4089987758054261 0.25177952102806805 -0.21265231780893146 -0.96632107544391299 -0.4320797513266606 0.1888838298577947 0.39617275350647085 -0.54960873183441772 -0.21670257904320567 0.45217566698769601 -0.43999243283171946 0.89933217583049163 -0.53252399287189334 0.56376514570239067 -0.85026616662330479 -0.046806119305052338 -0.63777725408379671 0.052469209119872712 -0.0052145533313867759 0.34731296642046189 0.43516210108928982 -0.53268303049498722 -0.55141104300994803 -0.39529575127974736 0.7139805619085442 0.54379356825849134 0.49979284299626209 -0.3502368342256969 -0.88914818205179347 0.5153967182441257 0.50374645698884368 -0.73887719195388013 0.74122521355621795 0.080327524250694282 -0.11710646567741802 -1.0961168670742629 0.25567466062430511 -0.57356766850330421 0.88755998661169444 -0.464251928927918 0.4999127722008545 0.68828315413139018 0.56935212299248839 0.39149574266819476 0.76299943183124397 0.86991325043657286 0.89887618496546684 0.77958838572294198 -0.57925696443961561 0.65705087264510842 -0.11451115212901439 0.70147043713969659 0.94841304080285205 1.0820252942736712 -0.73984451730911649 0.39823900197536127 0.21732357135871352 -0.06580613771741374 0.71374309792989454 0.54252687397135357 0.29356722321664735 -0.088117984549641371;-1.0653445582900609 0.5814188009143898 0.34661680852239418 -0.75932890447632229 0.8122889584473536 -0.062444954866226643 -0.66385977460071688 1.0405865332664741 0.30008611128495355 0.32812290047058557 -0.88395887453339028 0.17708728586676178 -0.33188289501921375 -0.8183435584806138 -0.7243245146670203 -0.30708168559241822 -0.057631506307624675 -0.48950810456026611 -0.97578101274974027 -0.11362951264306748 -0.507436175977792 0.096474447790320106 0.47040425907510469 0.52806402750232606 0.60822286002118808 0.38635566213805755 -0.80166418250844351 0.60108430772218602 -0.059476774723180449 -0.68077239037380766 0.25833292613001047 -0.55236246657393961 -0.40365674902297682 0.53784671526967298 -0.033623610375393923 1.0504281199971253 -0.4826261013339086 0.29808368780379579 -0.38513297951837472 -0.49373236020335015 -0.76761499888452822 0.88296603787314076 0.46773364160604819 0.54809410630932454 -0.92382079793220362 0.65987591299501502 -0.31060594731449154 0.13922342615092426 -0.63111076919773357 -0.29612496317801446 -0.76659160586634179 0.7647887832030521 0.86182037283357915 -0.49641209002596404 0.88945108964317621 -0.85772925423127666 -0.61107588423137338 0.091019385456723695 0.88810951091085899 -0.78128625487010561 1.1462669686320266 0.69273288262552302 -0.71911465547487952 0.7004862287899345 0.23392507514390876 0.21222759275971667 0.69140023022645192 0.21797450700330198 0.41764288315987441 1.2841704891885879 1.0888444980744978 0.4874697632411919 0.41761546438122948 0.96628403982776534 -0.48567730306734269 -0.98996145545227288 0.59821440724808395 -0.38747377010079731 -0.49340568550982994 -0.054362514159587719 -0.32373509898419406 -0.3818210296163187 -0.044390566846903567 -0.60283426182896005 0.85905191027639893 0.52586242074232192 1.0673565530938915 -0.23253618716814925 -0.96313299344914649 -0.39419127707939389 -0.51952826186758849 0.74657468747707756 -0.78555518003907121 -0.61948663531421067 -0.34381205109004137 -0.75856705664587398 0.66549652729128717 0.77030124624684115 -0.61154582940527069 0.7641625254743899 0.30945989610348978 -0.35389775516230665 -0.31787795665821383 0.1563243565247886 -1.1789905544030108 -0.32930334149046842 0.98549596338163448 -0.46358186063866208 -0.89400448010972622 0.44764517781629914 0.47026511109477803 0.2259311120273115 0.63036979582386443 -0.85947989277123671 -0.27473814320695072 -0.82363813224290228 0.88339382842253289 -0.60021651602523252 0.65416279215112283 -0.43335903414263005 0.78893684979189138 -0.55269795803519661 0.87493215244874956 0.39498060192165507 1.0325704788135064 1.2035146242080454 -0.5973797556801389 0.0011933994007584658 0.85108951333482274 0.26502421981474905 -0.10773202369949836 -0.47747252687644937 -0.91377293853874242 0.34781181886777579 -0.77882266391694033 -0.46666854059824892 0.059976790423143994 0.62838156047788574 -0.71358806763655369 -0.40970085337801415 0.35291058991837548 -0.59331372445923891 -0.39465140131117943 -0.2618456376322173 -0.31981124696762597 -0.30982029060534028 -1.3009633028439973 -0.18811579865661365 1.384758924966786 0.37834718495202724];
  
  % Output 1
  y1_step1_ymin = -1;
  y1_step1_gain = [2;2];
  y1_step1_xoffset = [0;0];
  
  % ===== SIMULATION ========
  
  % Dimensions
  Q = size(x1,2); % samples
  
  % Input 1
  xp1 = mapminmax_apply(x1,x1_step1_gain,x1_step1_xoffset,x1_step1_ymin);
  
  % Layer 1
  a1 = tansig_apply(repmat(b1,1,Q) + IW1_1*xp1);
  
  % Layer 2
  a2 = repmat(b2,1,Q) + LW2_1*a1;
  
  % Output 1
  y1 = mapminmax_reverse(a2,y1_step1_gain,y1_step1_xoffset,y1_step1_ymin);
end

% ===== MODULE FUNCTIONS ========

% Map Minimum and Maximum Input Processing Function
function y = mapminmax_apply(x,settings_gain,settings_xoffset,settings_ymin)
  y = bsxfun(@minus,x,settings_xoffset);
  y = bsxfun(@times,y,settings_gain);
  y = bsxfun(@plus,y,settings_ymin);
end

% Sigmoid Symmetric Transfer Function
function a = tansig_apply(n)
  a = 2 ./ (1 + exp(-2*n)) - 1;
end

% Map Minimum and Maximum Output Reverse-Processing Function
function x = mapminmax_reverse(y,settings_gain,settings_xoffset,settings_ymin)
  x = bsxfun(@minus,y,settings_ymin);
  x = bsxfun(@rdivide,x,settings_gain);
  x = bsxfun(@plus,x,settings_xoffset);
end
