function [y1] = neuralNetworkFunction(x1)
%MYNEURALNETWORKFUNCTION neural network simulation function.
%
% Generated by Neural Network Toolbox function genFunction, 22-Dec-2014 23:25:54.
% 
% [y1] = myNeuralNetworkFunction(x1) takes these arguments:
%   x = 15xQ matrix, input #1
% and returns:
%   y = 2xQ matrix, output #1
% where Q is the number of samples.

%#ok<*RPMT0>

  % ===== NEURAL NETWORK CONSTANTS =====
  
  % Input 1
  x1_step1_xoffset = [0.0579770961083437;315.271107360821;0.0437840304216545;316.220637301114;317.535;0.71;317.812;0.614;314.001;9.99e-06;314.177;1e-08;59.19274555;87.6051384;314.788];
  x1_step1_gain = [0.974340931024054;0.143731294208247;0.795153604720423;0.148857930220503;0.160423518087752;0.0207784651986681;0.164055450742351;0.0150002625045938;0.144938038988332;181.983455884026;0.144164924673827;250.000312500391;0.000302707182143098;0.000243460100513418;0.135971174111088];
  x1_step1_ymin = -1;
  
  % Layer 1
  b1 = [2.0825754662934641;-1.9665886230889742;1.9812729107490394;-1.6498724906582833;-1.8413433136621353;-1.8629322267901065;1.8538144681245461;-1.9049213034203165;1.514501719736199;-1.8286948794691205;-1.6646301248023796;-1.6239856058103093;1.5145514600774144;1.6457889225529334;1.5854103410279898;-1.5685735897713451;-1.5058315182607045;1.4948213566868893;-1.5827070291624623;1.3275922178474353;1.4821603268631733;1.4236311629527052;-1.3579082740323496;-1.3592327332697436;-1.2680636290668545;1.297928249551709;1.3906464560283986;1.1446872398235564;1.3411311100963184;-1.2798174179856467;1.3045111630964652;1.0436171328757311;-1.1044716924643545;1.0460107641635648;-1.066078702441813;-0.98268285069710581;-1.0831706341085408;0.99181490675750927;-1.0445279623131589;-1.0625862673710997;-1.0217237943874142;1.0701169989350674;-0.77480498085734484;0.55390892239681355;-0.60065225705880732;-0.75075828865922056;0.78314106461428479;-0.53364848727171177;0.72330100119767704;-0.67820316541577075;0.63859407111553457;-0.58251454971160166;-0.44538511030494488;-0.57856138428144877;0.38328031406412488;0.49353810722864844;-0.49665431537290172;-0.2987086826896756;0.29797211824183822;0.43205467328068214;-0.23393979589149133;-0.42937949844102885;0.28761112324368671;-0.27026549027605962;-0.44072321180176016;-0.11732570936925749;0.19332343414569853;0.30505102015712532;0.09193255405745987;-0.36821690289681408;0.036767938389889232;-0.20852798191386782;0.15210498523536331;-0.10719830285776363;0.0012962537767880755;-0.024978997698857211;0.25959400697688312;-0.043747659581423896;-0.029607032834948192;-0.10471813925604265;0.022664398247636927;0.10676424462445114;0.34231249037917227;0.11459991683844015;0.31421765692999981;0.14450628269179153;-0.15788245829081798;-0.28313201995178372;0.41892308270661882;0.49718419268567859;-0.52801689336929658;-0.41850426299075211;-0.55060562829556414;-0.47748475424690312;-0.38915665511221903;0.69504546550116664;-0.58573321706783221;-0.38443584032310463;0.4743486519025884;-0.65698838221109579;-0.7495810211296291;-0.51303725912721743;-0.76736726805904643;-0.80006154959015352;0.83897774268138336;-0.95735002625929366;0.93012945342876463;0.90292423954580237;1.0575268929344306;1.0049590229748375;0.81742078671105556;0.93474636956921564;-1.0741957221259957;1.060633728830038;-1.1205537125234537;-1.1792036069055598;-1.2301309862847796;-1.1018950164990902;-1.2557743781028052;1.1425754368272136;-1.0232183398069725;1.252434184526271;1.1919866040781448;1.5419445947369466;-1.1981746055691769;-1.528184344434133;-1.149406202271358;1.3631857300639016;-1.2754345961066935;-1.4841131283205726;-1.5404152852528892;1.5888524436690805;1.5439086925796672;1.593000764605663;-1.5120603338123113;1.6204705715129191;-1.4184959510982338;-1.7820570116192809;1.8906579821567904;-1.7850125171562741;1.7328451089561088;1.6958428060701305;-1.9310815327858795;-1.5556093001090354;-1.6361219056569629;-1.8627664111582072;1.983084723397196;-1.8343939791979085;1.7933051707824381;-1.9652541821656466];
  IW1_1 = [-0.47412050063899935 0.21301590558698957 -0.52745879888314229 -0.62524597462054099 0.64668317897150474 -0.48480787120921232 0.17605549208688068 -0.76612062929250679 -0.43043312912914694 0.04233376383043963 -0.33843440971800032 0.43623347352658171 0.5924341748509051 -0.71099554300361767 -0.43270506203479703;0.74233521362879518 -0.59430812690595403 -0.24826808098684364 0.66002438158554766 -0.63120796987398431 -0.62276384951417885 -0.51415952262610032 0.15729213911834711 0.027774037730383814 -0.70554003237455121 -0.23203510171120351 0.20196017168804112 0.66767155815699686 0.32877085618569452 -0.29297817737187054;-0.57767592354504138 -0.096132972624215648 -0.86651322621751503 -0.21231773727680553 0.243700757545631 -0.83931151186764863 0.053472416343237711 0.57581881653093936 -0.76750668189904281 -0.047876031816183794 0.14568098703368199 0.20565051209266871 -0.64743406012167404 -0.051868846869993629 0.54633901315946687;0.78011757740413068 -0.79215872893063122 0.43048014133152968 -0.19017762371165323 -0.13104180840482221 0.64536382591196129 -0.69669671667656419 0.18205111566738902 0.6019276329844987 -0.97978059917364169 0.43159841621024586 -0.84886331308446317 0.11468885168671182 -0.16963178756015168 0.20943038404169889;0.49051213623042267 -0.53368231790879384 0.6225210198077703 -0.4026932939772585 0.47536117836459857 -0.8641575628221142 -0.77883971821412856 -0.12079876688096018 0.3618890121868315 0.5416471686770441 -0.25979488248971339 -0.55639416433500877 -0.45008514712717834 -0.40298271433828214 0.4318309126779028;0.032324847738575802 -0.45148497508274704 -0.55605604524760477 0.17009257206164116 0.072621224245685081 0.67096126702143899 -0.31376364054442935 0.65718338983220803 0.18071407505701909 0.24643231634953139 0.069351906221788273 -0.87005366933114414 0.86510834726578067 -0.35822120504231236 0.72289925328863236;-0.031046961610084051 0.38717902701757484 0.39455210537621505 -0.045478425792264035 -0.31661804011632017 -0.15821376835374645 0.19421779859671112 0.90931228672861231 0.012347447317914751 0.62302264171487076 -0.76107804076694774 -0.22368176020212915 -1.0461421040782011 0.94086229233727514 0.73667299121188379;0.58759607751082998 -0.65068076060593805 -1.0261340423959946 -0.41795355519284749 0.15797322511527434 -0.91910691098971764 1.047312609280443 -0.1407161286173253 -0.066605820245087821 0.12878367436874255 -0.49523149469767552 -0.2796645179753009 0.46638504249106216 0.022434415914644762 -0.54074297837837004;-0.71268493896671203 -0.22976819341226798 0.45004102289619796 -0.33998799004121394 0.89598181098968077 0.1006534697178179 0.51258041393408726 0.82060752858314356 0.89939949789679707 0.32849769922621064 -0.3637447257279563 -0.21400512599558105 -0.57098055457381869 0.74192994589498118 0.41831738195584373;-0.081605865539536443 0.60773370716678166 0.55060206066651451 0.20482647379894828 0.49483811496784413 0.23330171212389952 0.41709663870422753 -0.30300545815603686 0.88270820303238717 1.2810897847753546 -0.23732351352251768 -0.067104579142632015 0.53882449743236238 -0.48374309911118651 0.41003255039567899;0.38445763401670935 -0.10110787796287767 -0.74879547494393728 0.3470168332452841 -0.40926118945774653 -0.38775674642089825 0.39093770587695664 -0.90268424079346243 -0.094658316265170586 -0.78330122641507982 -0.4637249274846108 -0.76668226689380137 -0.31772606563708949 -0.73480921172510971 0.33490624134743729;0.33811269496540874 -0.71033324525971109 -0.82140180794842876 0.59930688860560966 -0.55014990504075134 0.99017452713657061 0.39748631823786307 -0.60827047083236185 -0.0048082482234582209 0.26688412891946622 -0.34382830932578473 0.45493060819446257 -0.51162049470298765 -0.48205612900661271 -0.021115626794478454;-0.26632241557508746 -0.15566582884442051 -0.49373552442827934 0.74638472127963462 -0.091935638472407821 0.41952131275460602 0.35431708636242198 -0.28361402859053619 0.76967253624148757 0.76610145909793748 0.72416300933172184 0.89331885175224157 -0.34060812107109906 0.029710598588602023 -0.58771309538356786;-1.0786360400776271 0.056764944858111871 0.72387944399640913 -0.1490026105937888 0.79999471888515938 -0.20507661323280557 0.098610382071360428 -0.42141014558717688 0.32300605951506495 -0.014453363681564786 0.290458728858218 0.19269371757656081 0.91953047084134409 0.25572196634313887 -0.51587573114254592;-0.63010959381181364 0.56012872631759425 -0.35726615760196473 -0.41441209721497529 0.31788491414889419 0.54935177349816111 -0.2140165054376931 -0.69838704898758219 0.47649736658030473 0.37269986783596604 0.68909186435750269 -0.74838677791446662 -0.22368503486659683 0.674194327376747 -0.28458190049709864;0.44801800539322212 -0.040104620430754918 0.0016921197777930372 0.75770048570364767 0.49525067511911497 -0.63006355493449873 0.60605537018576505 -1.0007324650706702 0.36417256329413722 -0.85362347320212784 0.16909326380310227 0.66399529248282652 0.22987094191794344 -1.0295562515247818 0.59503695738941986;0.75900551621055634 0.37540576432466732 0.087738022818808062 -0.43849197621134484 -0.94466171934078147 0.42559267607400347 -0.64071152478970494 -0.17795438539417138 -0.1815814778188253 0.37798652089223717 -0.65469010490036539 0.3538830889687225 -0.79504155140751276 -0.67561878468375391 -0.8162476869825831;-0.1081416313476104 0.35602519474816452 0.12065234700970479 0.28364878243177416 -0.73239212382598617 -0.16411627558855726 0.055408665113876619 0.56355551360068756 -0.51287252298620267 0.71009688205507904 -0.64151096940035013 -0.87030151309830439 -0.33469163326486656 -0.081422801335722633 -0.60445354702527965;0.58313730608740422 -0.67823496619942758 -0.32899738256742111 0.55820222964733945 0.45087893283761205 0.61578608648562139 0.29374036799982189 0.21575547121110611 0.18892396065018671 -0.36497783396170946 0.09760967113018032 0.71547295173615688 0.4895964244777965 -0.28109231608450613 0.78861696798954961;-0.3882538190743785 -0.62216884725573118 0.072436298137214167 -0.98761098855912766 -0.087282993791255953 -0.61622967824491592 -0.38307597754671802 0.66796614579654778 -0.38516473192959333 -0.16409427227418252 -0.038959828251724019 -0.338595589696009 -0.013096714046075372 -0.67152523659598273 -0.8140022601802902;-0.60877737344272298 0.14424585995870695 -0.19646079182704787 -0.36787852262308746 -0.017051189530577021 0.65031428494485588 0.5480695618005168 -0.10054939153915814 -0.4631984709431306 -0.67658954249050784 0.31635941578430715 0.40794107248245032 -0.82140399836760181 0.43332825401054792 0.7790558839084375;-0.45648063178030246 0.21581722309057214 1.0323502891996166 -0.044834105757557363 0.17693512316335511 -0.026347541909666736 0.4528151991320738 0.86083491857358485 1.0916089852627227 -0.71720007070353753 0.79904916391570069 -0.097355840020293682 -0.32003321938299401 -0.21514086773877308 0.62782113452996657;0.072427692580654582 -0.56632636849419171 -0.86638866390396307 0.13639328272894191 0.028765567522904548 0.11196875376396197 0.76865314246662175 0.91005496387979135 -0.70064021087103878 0.2392937521586187 -0.21351006031956307 0.12768588916194487 0.56432617447841915 0.26381305080041223 -0.49087847631518156;0.24716663019594518 -0.49883308128560327 -0.19926493332983139 0.75132370810600568 -0.43654645480713389 0.93322589722158322 -0.28760700606691825 0.81633561380427477 0.27134605780710863 0.71375265988785241 0.12437475862077924 -0.036796585375443801 0.6893655113503947 0.11712882151967755 0.03487485341067148;-0.078850772721264908 0.68098091497136615 0.6499349808311965 -0.42202359629407782 -0.32370730083707905 0.58659063841830761 1.0415157167023155 -0.075139015088579425 0.065907847028807504 -0.55141657407727518 -0.41814457443146064 0.052549488997866836 -0.45151514518396296 -1.1178375231262354 0.52067554324248588;-0.25533153952962845 0.1712437387521431 0.22222123178840447 0.83447731006313219 0.5540254466253246 -0.22545955694352199 0.6773181878542831 0.65458500495418992 0.22977562267935855 -0.57819549095740252 0.70855504025198857 -0.45331173836548327 -0.31410173268603697 0.21762740896829963 -0.59659596157236994;-0.42068864897444619 -0.63058638500797326 -0.35717031420685069 -0.1559903849995572 0.74518676933622541 -0.74847797045370579 0.17454774113268509 -0.14845728190470067 0.37542572868676122 0.62915816618863107 -0.0029521146457906272 -0.022059719411940674 0.6953628514008634 -0.35135058785636464 -0.7912197989321087;-0.68464888233425136 0.48667172961669153 0.84573697750850685 0.64972372478723417 0.28268835528079583 -0.84926775025684065 -0.66851108491472966 0.30359639781879677 -0.29061694923238512 0.11060580215505861 -0.34093287538602379 -0.48052459770875322 -0.066459499882738998 -0.36619295222054427 0.25387653048061454;-0.66725057932397691 -0.22809252629469992 -0.77142735151660191 -0.11026767338662509 -0.27267691571179709 0.60586066142871642 -0.46975894521476352 -0.19999535058899776 -0.98962678002563198 1.384009443198787 -0.85035600150972102 -0.26739981876286728 -0.24403359820844167 -0.011997107370331892 -0.60399175970005103;0.62731814200918423 -0.1870099216213883 -0.29697235773347413 -0.42980379355475262 0.10696185870188056 0.10406871154688409 -0.50326190960329442 0.86907296891702956 0.47247846014316275 -0.46513358008119804 0.87930674071494375 0.039269228975503293 -0.39797219069336787 0.39901462441014429 -0.61588635394136693;-0.050154327426881487 0.65402411832430229 0.66707237065456981 0.024672790130133165 0.62883986388120394 -0.25233201465178995 -0.22941839475626574 -0.42813191966982189 -0.12612915840168293 0.16332384494551028 0.73237500986096904 -0.25337377279819778 -0.70662474390412999 0.62651710746140965 1.3554196866597454;-0.71405064111729888 -0.28898458566638247 0.40337902469353726 0.27530942203660003 0.58321939575549386 0.15190771502692058 -0.57457549122544271 0.50335477945323082 0.23546686749491655 -1.0602128042137935 0.36625015898309921 0.71131398202251717 0.94834037215773981 0.16191212563646054 -0.41813108583778036;0.24570180650578557 -0.66011601934630326 0.22421249154409842 0.53828399689788964 -0.56737493369381775 0.53037816266869553 -0.68739073877001178 0.10985093529148472 0.51049619757730003 0.0059512487509893516 0.19807911254193991 0.6525387559318182 0.61759936560707784 -0.66160849435439273 0.57611009288480775;-0.67106012876841581 -0.83347410785418874 -0.003119517156496587 0.64184719869398721 -0.073770457226935787 -0.061136481757230583 0.74199884788484682 0.56130437197085636 -0.4080931976377607 -0.092128108162197395 0.60942095777275418 1.0718419940057464 -0.12676882587857705 0.58199545131638841 -0.15436233895420698;0.68281439297316426 0.09964359207056124 -0.79209815778151438 -0.70823985153706592 -0.12866954635933836 0.5873141745274596 0.062697027032574917 -0.55772424830987022 1.0165504440047031 -0.43026833510296919 0.3661902463049686 0.26068324003967014 0.70259742494210897 -0.70284658875112316 -0.73596338818351792;0.049009009717753377 -0.06270443634355688 0.77927423006050156 -0.62919065060740931 0.15549954441675176 -0.71034220140024951 0.10350991663285074 -0.18541646400779344 0.57909364886602122 0.80624332266366883 0.040965492129096205 -0.53292933275957177 0.76312575453451392 0.53061147464837288 -0.36686677102403326;0.13273994702841926 0.6997098987368271 0.61167027402803131 0.40999635454402916 0.057594155276813698 -0.3419191977891245 -0.44983357734109253 -0.59813859544674997 0.53724048742199093 0.17412027616673034 0.58851406270366069 -1.3061509660286958 0.67194396628339526 0.098917609918824478 -0.76114413284393112;-0.42942490124903748 -0.67983013576960782 -0.10633242166689569 0.22203772247825448 -0.43757746943659209 -0.54124560159501045 0.80375923301189456 -0.67683864482554856 0.25059167370212709 -0.29352681171355194 -0.19307091333991153 -0.54558379721449834 0.57862775783007214 0.16886506320306061 0.80852503776182327;0.5462457254916615 -0.38360691536517183 0.7142493012214749 -1.2583547945517342 -0.78894373325690326 -0.54184563498310201 0.80716506650170317 -0.35431046394728638 -0.039115792459269771 -0.11677749113610462 -0.7245824439964561 0.21872272341384746 0.16235104272121006 -0.17204331665925121 -0.18143626121848727;0.23503577106931717 -0.00032643521153331509 -0.41119098357663453 0.018247622251581073 -1.0453956900356454 -0.26172813976430198 0.8752995700411671 -0.35847589501700922 -0.3793089334422875 -0.27178561576370674 -0.49116796284534159 0.27723503665241361 -0.64035350130122448 -0.82630625736271779 0.078807381558629375;0.4483992934584799 -0.7814570684473634 -0.11934715076695949 0.58111512793311348 -0.54274582035269192 -0.36817339750534761 0.29945168565769564 0.11068596435169589 0.55154003349986536 0.42941438714184388 0.59547365776539496 -0.25161632803412715 -0.29546114092339831 0.84502812387309756 -0.29266053214523491;-0.48945191544539357 0.27797762361617523 0.39300178888732029 -0.5703675553444113 -0.67660597065986405 -0.83030513868702216 0.28362381031209483 0.83900415001204987 -0.14248134641144777 0.74640507635916631 0.19815689290663743 0.46257192201222147 -0.26025518181757551 0.13586393582279577 0.26179670000671146;0.40110148372316567 0.12072425200444853 -0.6889043656624757 -0.47293147496498972 0.52697599037902498 0.096962907456953226 -0.11185436367290483 -0.65093130129335974 0.18195508301018118 -0.22678216229488915 0.49380894325214125 0.70252504513725711 -0.85531323119586422 -0.20999150312834927 -0.68242260185105619;-0.74083846426353872 0.69164754094335468 0.771336141709971 -0.58839665964153076 -0.013979230960635983 0.66450008986566678 0.11954445924190309 0.42748336828848021 0.81483275943479461 -0.88240069648164221 -0.22499049157900419 -0.3192589288105529 -0.50755630236670068 -0.47204430409728598 0.67778603360238165;0.19503916480614258 0.19194161773774071 -1.1428267092013638 -0.4915257223170576 0.2645790199056795 -0.45891600448857206 -0.48536540726618294 0.337890298520924 0.3853369173890977 0.73422638378937188 0.019107621811600202 -0.068761575400732119 0.67627191432464806 -0.53836005467821491 -0.39289436079387224;0.31484797634359957 -0.64512892766942986 -0.30860574039619809 -0.10919972106730862 0.85173059474794954 0.34768360252635239 0.59851362536467101 0.55125810109339524 0.80175558044447803 0.33865819237074413 -0.5133705902681831 -0.53486178764816938 -0.50283354865389629 0.49425116829164184 0.5953992095383398;-0.10864735276042148 -0.36681389695594618 -0.90469823437760766 0.19435922817169787 0.28188588448076052 0.454534266406103 0.55117784649048329 -0.75679454567133098 -0.03648160127516667 -0.75820895407785183 0.84297419662350381 0.031133222624271612 0.12532500209850081 -0.57729716148356114 0.055979325999094755;0.3081693097746655 -0.77847735441428823 -0.16000186287979259 -0.52839667443430482 0.16275063948361107 -0.0064168867407762217 -0.64647784234886307 0.88049431547175661 0.75177020716770937 -0.93688375239725696 0.014862986843949037 0.41677147320574731 0.18624034447450327 -0.14838694766368185 0.91075519290049678;-0.40878099378205468 0.23402023849539258 0.60623273032661362 0.20873335577889407 -0.55509676444261735 0.80087378895195493 -0.56050004918079754 -0.41836029443734679 -0.13804724788294151 -0.50959417053996225 0.15204525073528324 -0.67706986351909304 0.60270964167015517 0.80571148930329684 -0.20145888569692447;0.25392746064006028 -0.78385093118476346 0.77978140885849989 0.57117157408525909 0.49841393572680809 0.17254742063537198 -0.5083911642417116 0.7215871992893278 -0.52356107895418358 -0.17272080005560708 0.51645116720925099 0.50786226737468232 -0.15003542730725181 -0.55347682652651797 -0.1621093473594597;-0.58299773958906709 0.23418995407724483 0.059247636330586516 -0.99479400711795096 0.76561182051773935 -0.82827427386135255 0.089070378591925084 0.74882266873498948 -0.14082071182875469 -0.093039776529845547 -0.50665780861850462 -0.12715034792207039 0.3599507433457837 -0.24650136075994844 0.18021886264413964;0.49919446410031465 -0.04037201081783208 0.50083363138377401 0.40743790497301541 0.65396685356514317 0.78227778403556802 0.42619645107641568 -0.33167477830596276 -0.86806379965508551 -0.43340054016002155 0.22103694715412528 0.014837115716370235 -0.51775159119214886 0.11492803593945752 0.67021085913316236;0.30402511075037214 -0.27584540155923071 0.050800134308036225 0.35187956880366311 0.26870539538752053 0.35033722787381311 0.71503568672192208 0.30865572668089974 0.75591914437394381 0.39416972172774373 -0.10163186904754326 1.1266853950608946 -1.1111917267331304 0.15164978355692255 -0.44999519511509339;0.77273965884892681 0.042395486310387295 0.45008689712933936 -0.039519255477426317 0.26510817225423788 -0.31595311681679145 -0.8716547114816664 0.68113578604764313 -0.40742129424224705 0.50273997003052162 -0.36204791214355475 0.35361332050691685 0.19613756538289959 0.30844267253973018 -0.87084915906168969;-0.05519465736466117 0.35553844192075751 -1.1601525638989931 0.71658615379430202 0.75597443752748961 0.01528286650224114 -0.48193249581348963 -0.88550378668560592 0.31540051497944016 -0.47254493604702003 0.028628572356643865 0.83693944364895212 0.37440275826407476 -0.59268442251471976 -0.48263883754224429;-0.17221556350987485 0.60681402610601232 -0.13478818634032216 -0.93322231113441978 -0.21152914790333824 0.68481207322476612 -0.13538253859856986 -0.89728800525107588 0.66223581605896775 0.41094182545655095 -0.15008490707617192 -0.7164208647198258 -0.53796515184778193 -0.19405731153795064 0.18760129713965784;0.017996730892626718 -0.35580183782526653 -0.36084347498355979 0.42168791481325835 -0.49596450230609512 0.1386283503554829 -0.45488204219095274 -0.38199479404397785 0.35993404340936413 -0.85130334221013559 -0.7711771401286629 1.2430607270139398 -0.019482018688828817 0.62316750921659492 0.85965199618864152;0.37468199816413883 -0.3725244837199832 -0.52142084321296134 -0.43409808137302619 0.290105265566171 -0.74909171663476692 -0.17380019368168087 -0.94589312722546492 0.28537594354646822 0.07105095356540414 -0.37282168493042289 -0.69481520515228312 -0.36778169388614479 0.49293304460913284 -0.49615215782552496;-0.96077765604482568 -0.21579544608182355 0.62732280716084532 -0.76322413487343288 -0.50937406244039818 0.50647410034605667 -0.739227745152508 -0.74803417037032494 -0.41318923958106241 -0.50623807800225773 0.66615039899471362 -0.87798539647303719 0.66981474641162153 -0.14533419415738946 -0.3209087187180929;-0.83461336323523161 0.43751919002995998 -0.76168612413676196 0.32164998802017908 0.3427845269509629 -0.20479148384792534 0.66724720543144256 0.64885838185145572 -0.03242703279809863 0.58625518888730865 0.57832334528157148 0.29104523295891915 -0.30320845442098066 -0.50845781207363827 0.6971705272331512;0.84451383373143207 0.6192838186115629 -0.083138908286488761 0.85723038292794063 -0.95788255375455356 -0.62672579989963251 0.21978550446335468 -0.3531079656325698 0.52241553829953979 -0.13876924790768524 0.55486361297381581 -0.62511952994893427 0.68636143119177917 -0.21314771297364093 -0.032904529471804701;0.79694332072343455 0.56215880920118433 -0.60516068226075781 0.17754576760478569 0.85648911281779339 -0.50841953246672911 0.091507938493197202 0.50760449434818167 -0.44969168427954542 0.52462896386771951 -0.27484875664750641 -0.17350606062893548 0.20391471943476486 -0.4271003123603534 -0.72414901763179473;-0.080054901911623566 0.69631830589913446 0.18021054041883075 0.6266623303957789 -0.51954759231190217 -0.23110698874703348 0.1030079894122727 -0.54913872787148943 -0.4754244950137595 -0.17011792016119132 -0.83568414304225724 0.55353276865341938 0.86985341438393649 -0.39663070792006183 -0.065355698755109534;0.31628234208508033 0.74608731511896687 0.72067632606604548 -0.4099670560888346 0.086469722166759938 0.33306749343597797 -1.0551051869028836 0.14940073495635986 -0.47665070557763445 -0.35268966068839258 0.1649714896917531 -0.28968671522107636 -0.53375667606918542 -0.85628255999702274 -0.55003511781052628;0.94842428473975993 -0.58875388068956891 -0.43346861805680498 0.13063788470085808 -0.20178883215716489 -0.34665643073738039 -0.20171011909739503 0.83934464065102798 0.3815049001362264 -0.56952557768564671 -0.71190852383841352 0.28242544224548266 0.38947475463820558 -0.27835733967338994 0.20602633766654455;0.233589771999792 0.65864037810700837 0.80684948709424309 -0.5121517074707671 0.60162706760428253 0.25279946228789468 1.0926462926033802 0.42428301856109829 -0.076370175634302692 0.41197040286404574 -0.33923133900510899 -0.17417464137704364 -0.8333002864318978 -0.088155686768149014 -0.62443992202826415;-0.19617801370610446 0.65536096879429662 -0.54133211064287323 -0.4238205618641413 -0.91190611109277964 0.60264488429195395 0.55917647184260788 -0.37708216124284311 -0.014599513209397584 0.36954829089679309 -0.56380774795659627 -0.56783586500498284 0.25189341079717675 -0.56941588811997457 -0.63080143521241083;-0.040960879419780147 0.42969122820159134 -0.46543218174284712 -0.71363529502207146 -0.92618765337871611 -0.66233819289126594 -0.43403309420024805 -0.1801462847914431 -0.82242004090065401 1.0950616012640599 -0.060108277399658447 0.67828137374122288 0.64176028753287784 0.70580224952410675 0.22115938465457724;-0.21138239123927752 0.73624165096990146 0.37911673406751234 0.092766588287632526 1.0201832670511621 0.27125178852512394 0.3741357883228732 -0.17049291171132855 -0.75433908548496664 -0.49124481755402477 0.38703864329649246 0.27133384157829671 -1.1492701417609867 -0.56279078196266641 0.28350797083853535;0.42904087841336547 -0.67169229175501455 -0.42951132219794247 0.7698118471149844 -0.85894063172742974 -0.28026721091176532 0.055620902801295065 -0.19538146722742042 -0.48772753428309545 -0.43573187184777018 0.2410442798498682 -0.72286537349536228 -0.025176788859238856 -0.32593005527207514 -0.21842184811619525;0.15421608677938567 0.26387220834131309 -0.87444067127784375 0.4235304516847071 -0.45516232508681248 0.22641585699409042 0.79949329601818608 -0.2854275132511469 -0.45241185358339681 0.51191063012204696 -0.40787337719417155 -0.54004871242534913 0.4565247381419863 0.66632443791255891 0.17724496273233295;0.83173850034500851 -0.19896662189921635 0.37092303804310328 0.34289914195639315 0.072361267874434976 -0.59402254091181184 0.49078326835704567 -0.62651131742319444 0.51833680373021784 -0.69579815977612269 -0.32675825645440298 -0.36095606558979459 0.70489293485176807 0.23892018434531967 0.8197254408554483;-0.25012321767109913 0.29927926714015157 -1.1103019554451685 0.1529023048851256 -0.52538191409161361 1.0135634796706876 -0.84686588981596644 -0.20754656914185879 0.74371934817248941 -0.50848087549998078 -0.67209667026561348 -0.010723497145312483 -0.040742713561137359 -0.32508059798466954 0.34003770662323424;0.0091622344459418442 0.50104689351770892 0.93658806997761734 -0.37029678575262165 -0.12544915435483842 0.073111295923454112 0.39992298493801115 0.013844942673545101 -0.80953735723535769 0.70940950796399305 -0.50180942708377163 -0.35033758516268965 0.98310149670398816 -0.52774297795358238 -0.21143145135544822;0.93935561980326687 -0.55945485993865196 0.11982668203198527 -0.76431143467353146 0.49665542407043739 -0.2315040373623895 -0.21389182938820578 -0.97627450911014868 -0.053989676611993088 0.084911021301172868 0.12121368738644984 -0.026875899934468504 -0.2117286183020981 -1.1179364646515972 0.046784611085605748;0.22037962514323467 0.51830735442745191 -0.052078858438145276 -0.418525708443717 0.029462661505336211 -0.88809676861835352 -0.74630578597631825 0.38142787671335787 -0.99219302307285795 0.52566689788196519 -0.84994914075880335 0.66153990065852664 -0.39108428730594808 -0.11356347602525485 -0.317140612519694;0.43139311517442391 -0.34507196043377286 0.20699076625600937 0.9160964107162588 0.65210360345105167 1.4284892091898596 -0.53164974086345584 -0.98022929568615258 -0.27007806242879345 0.28844072107879615 0.71227605237259728 0.12504560762927755 0.0051073716711177199 0.3192749300849444 0.54044586052191224;-0.75697876025606559 -0.020935276007529587 0.7759800072416968 -0.56855453933227185 -0.72596048250597822 0.16725427119695546 0.41315756736195319 -0.75174819495189082 0.017034402687690711 0.31204273073104988 -0.10026363525586576 0.46698402472116357 -0.60835670399621289 -0.24033893465539277 -0.23371895701889969;0.06406232445923242 0.27389565870471094 -0.23582755976890718 0.084910533669003294 -0.08872695264932394 0.77808462308850912 0.35316047651045512 0.3958920937619092 0.63278122434828998 0.012900942649871787 -0.69788896873755513 -0.98534773068342285 -0.60223574285421211 -0.6268089613231923 -0.71433092197183479;-0.96401508839221672 0.26513801415008448 0.37900837061738418 -0.77361781663428031 -0.53928141144236175 -0.30399421542585825 0.26363733839375741 0.39131756802980611 0.066969651695616181 -0.78831876780494814 0.061236180279922822 0.90391192129823128 -0.43007766516923024 0.8144161066728689 -0.65164921488903238;0.27982684419576864 -0.21708770880066677 0.29465355729053622 -0.014479544050472606 0.31632856404759557 -0.86282455752303422 0.95402876608966691 -0.75908330675847702 -0.30187123626102746 -0.087097738929316632 0.73760645832286631 0.98381022525753159 0.60942777437207662 0.28403042721304717 -0.18862906695496823;0.33240280179184079 -0.52783846515286903 0.55304601282358357 -0.7679109110690352 -0.90926939972028431 0.62517403605444433 0.011191960547899983 -0.33912375257118937 0.57632360813999695 0.55049961821939286 -0.50585386081267003 0.30738965288527315 0.13383818132237052 -0.071159065401615373 -0.9888077105893528;0.71217922500817732 0.58185257195018669 0.062288253730336071 -0.27427020080138004 -0.97931522094206747 -0.10484678439076223 -1.0971250185771098 -0.50736368226723061 0.19923391473730256 -0.7261468381061017 0.26466142668000314 0.73406223836393825 0.58796112687363111 -0.187988279351882 -0.39341375625539299;0.48234311016886 0.29311168691021577 -0.16377483809561805 0.75604038936713658 -0.35868245068408855 0.60826388986064661 -0.58173811684166787 -0.6771191542846573 0.13463291800837709 -0.19889283749537626 0.57344406354765243 -0.38363400030480299 0.84486133990722589 0.1862647728088288 0.9443872436603058;0.24540612441483578 -0.50969030811022753 0.53099576190355202 0.62519572403073764 -0.52702253113472763 -0.68703483927819231 -0.5391711703925568 -0.74719795341294903 0.75951559818254488 -0.44498394087849996 0.28719713469695363 0.57421058376477196 0.061512435271598345 0.16538472164790649 0.40386601685800388;0.86598855182755252 0.20679720362215737 -0.34461632426529371 0.65751851547476237 -0.66772306503093615 0.70931440444583382 -0.75305409706067039 0.017316701833252037 -0.20562258689838842 -0.45465949982437448 -0.23958178341586581 -0.90811026439904008 0.026067874494565553 0.33431027215500037 0.59087667052847281;-0.24047140643752607 -1.288120839242497 0.38723040709824719 -0.082629255079164909 -0.66488779880317639 0.88379402326073919 0.36330700873065613 -0.64778668342416168 -0.59235887356347494 -0.78067200015284721 -0.23158347840217552 0.12101408137397796 -0.38016978113869943 -1.1703410508250371 -0.82133277992461817;-0.12138651867788861 0.48321115518747459 0.66398106920878641 0.58081268844358036 -0.64835355561259223 0.30903734103266223 0.30782431352919654 0.46723643953456828 0.2369030807549348 0.74203721712787807 -0.1227901239454332 -0.59126298707165637 0.29915483598215054 0.346198821734162 0.68435676334301665;0.94152907056625501 0.6757477232512562 -0.16857186480779709 0.3057365729073061 0.44968766712404762 0.85488349731959945 -0.29605627421391795 0.22793764400073308 -0.7072679437017575 -0.048338795588180057 -0.21354305409251065 -0.35896813002216021 -0.97655559695847416 -0.46741196857013512 -0.50857714048413782;0.52315729190561655 -0.29069759830455894 0.32585308820338749 -0.83017679022732549 0.30631511266995148 -0.23039195446077051 -0.59836724284345177 0.40518257126502738 -0.2301616094507058 0.28092931533058024 -0.48148856493574327 -0.66581884505795663 -0.73362958085897401 -0.25989618829656824 0.85964407545637489;-0.57965988197798812 -0.86580231217749359 0.20812029855204683 -0.96738953094766322 -0.67982484367032081 0.49932325310943299 -0.41552007939800567 -0.24674932713443895 -0.68932235520497742 -0.536491106824043 -0.1218944198444846 0.25722070469122926 0.6834118587894783 -0.68448644197813402 -0.068713741038756063;-0.73593475083102633 0.44043663458271631 -0.14459182848615651 -0.4325378062810627 -0.71886455160329188 0.12654550438299339 0.49995170759785268 -0.83500679707662007 0.45354202383051628 -0.19964524726571825 -0.74958820270612037 0.20679350160831994 -0.22718390683455897 -0.35591850043491136 -0.41335138968783991;-0.93126625183476752 -0.41535493698863157 -0.0024194318381334304 -0.64886381810791116 -0.23969337578921882 0.43893319516543516 -0.290037326521003 -0.88342482707217607 0.39661810238847478 0.97911605392342904 -0.012015115993258128 0.01264995266230462 0.19948880246753498 -0.97713641889838865 0.3388097963210589;-0.58559133256308049 -0.39975175935882007 0.74558143366732299 -0.53467593733139407 -0.058103243170637746 -0.20270422821107945 0.40756842289457423 -0.50079344977236273 0.29982647829006576 -0.6433488218100788 -0.67395403966606837 -0.67328405902151733 -0.32229581380706479 0.70096999862191689 -0.21389583437421031;-0.76119672550921413 -0.51477619399426855 0.64155748634873278 -0.47475205836414575 -0.60482661519932268 0.32858240952814755 -0.37647086128119861 -0.38503261032284486 0.59121889144753226 -0.87229572523396004 0.58296939192317931 -1.1643733901750952 0.29772574302939325 -0.046945736257693646 -0.1143413155804596;0.12139589164125142 -0.5856205364027417 0.3806124152083562 -0.05423640749533374 0.81617992123273209 -0.55732938641693908 0.34086566631788967 0.30531603852141082 0.62192240631812357 0.1952235364412323 0.97555145668604692 -0.8268420100837468 -0.23220257091590496 -0.12776241088036103 0.73919253760782666;-0.70380697323171126 0.098761647422115378 -0.1432667314735602 0.70288697839339198 0.17509065619982497 -0.77733088292935415 0.61796217745119009 -0.46366105373332278 0.033741526470747372 0.65477824063288514 -0.271602304034398 -0.71210915941820485 0.41199334508030216 0.10157409200863166 0.52706146019115174;-0.10205556002581825 -0.89578592879348018 -1.0114413851604709 -1.2189036168512493 -0.97274392469497051 -0.26007430344884336 -0.68489194119798791 -1.0346947597307183 -0.89660287084813273 -0.7846274422722247 0.47676614773912496 -0.48731635497454545 0.59252556266182566 -0.77254249449295964 -0.40690887792637098;0.27974551625087341 0.60241312450078577 0.41120930250416288 -0.229401699794435 0.8245952443981448 0.07357221632230207 0.10265190009435581 0.32419021413510252 -0.51645267248546312 0.22190205520635778 1.0258375471568779 0.90072204935417355 -0.63856966372906598 -0.37599120914381523 -0.43243901592225442;-0.64695907618919279 0.007813037328618589 0.23273374025128118 -0.12418213495063618 -0.050343077320984524 0.17434816561197269 -0.78349523620893191 -0.46746532472043295 0.091901452190044211 -0.74750450931500334 0.92453436611513851 0.44576065726183123 -0.13345643860384687 0.95005290491804517 -0.38465330367883876;-0.54869182769007563 -0.18711334406482305 -0.32669072461729337 -0.33769919751598565 -0.65268341175363564 0.41039223358106325 -0.31309843392704845 -0.25171368685130546 1.1143611747274065 0.67634098075831328 -0.64205738114763045 0.50602535548364413 -0.77418963727311585 0.029959280138506728 0.17718043055953139;-0.29916634908440476 -0.84959445563235925 0.43967498537521793 0.19541772360897652 -0.77180733590859951 0.70402607151632335 -0.87152926920987128 -0.55090210187834121 0.084326033301662162 0.44670568224777069 -0.81897738528593467 -0.85552817529843428 0.21423775994133831 0.36086185170583851 0.64522862345547949;-0.13374466303536534 -0.53885362109299828 0.33804992672630191 -0.34200488187630373 0.87246178993161749 0.57036390864863495 -0.74851400431652182 -0.10408132525350172 0.6178989052791769 -0.75296792950850788 -0.36783931742869591 -0.6849255843394314 0.7290106762456654 0.38000192198292027 0.37738769956197216;-0.1467608710604672 -0.003276948978889322 0.33776842307951271 -0.65492149978036074 0.44177392713854108 0.71627013395421391 0.066478734933682365 0.74428898134211552 0.6287544991657199 0.4724384623451503 -0.28933341235400539 -0.33990831257616483 -0.51998606068155051 0.63739437056488635 0.68992736400476884;0.60579490641349043 -0.093547383329159073 -0.54739352809009478 0.31361074401377886 0.38784041859112262 0.17655107257467922 -0.075281941376365499 0.64890933067772327 -0.19448576600980838 0.91935216921677509 -0.48030472415948255 0.71878468890912972 0.042669880540225871 -0.5566726225852705 0.31235519018956776;-0.12449697713364577 0.70571127884072415 -0.6067825854498119 -0.16065778183306792 -0.73364573243359321 0.68180253789273215 0.33247918658428111 0.05187282942889003 -0.27564103686172664 0.016241145616868052 0.40752523838116483 0.92544549977494028 0.20172775822175726 -0.16970914083876945 0.88252523570416008;0.33324067087230558 -0.79335904573639926 -0.53455669896641744 -0.25191925733981424 -0.29775974707247638 -0.76550299085297469 0.70701065706852795 0.28223959592394027 0.38753758632679874 -0.40759914671344605 -0.56022813768547908 1.1526239551885913 0.12974247281555387 0.63705305394295364 0.32126877892477629;0.1071205646160871 -0.14002184662146505 -0.46382284742216812 -0.87769619313636027 -0.12908112508909425 -0.2294574640245467 0.50856724916453089 -0.46017960141965042 -0.53854331820132406 -0.82286656878002606 -0.068098925310820374 -0.35601549734087051 -0.47264309492396944 -0.59602111324250273 -0.62018501415471183;-0.13796582662780008 0.15841333686590708 -0.41959124412990539 0.66638616992534105 -0.58001229290056078 -0.52304197928179208 0.78539837469726315 0.64195912246708153 0.82054302897303899 -0.4967836437247013 -0.33091699123927254 -0.49388403505241779 -0.039371576162154934 0.43755042078354528 0.027693963679495899;0.3561449505694983 -0.83317155578033808 0.66377391226721338 -0.13260967364501891 0.00783134807239836 0.0086511258500813759 0.38553778277321044 0.16160336133632416 0.72368844783311304 0.051678966480050458 -0.39926547459324363 -0.64250234380181959 -0.70083362574644892 -0.76026620007649215 0.23844171290785274;0.64684627230230141 -0.053705788754906218 -0.49760737063401167 -0.89490299158509468 -0.4410828895373653 0.32617056208035933 0.48921339355062543 -0.41001350650631968 -0.3247002082583394 0.25273526936267365 0.4784941779588483 0.46236558517020304 0.14724833087338537 0.82791839153382363 0.57510066909459523;0.69599640631331594 0.64684215427650738 -0.51237106519867248 0.71226929966964925 -0.046039818053708152 -0.62703980651053648 0.45663243867915371 -0.61671679966437998 -0.19674356638964055 -0.40224776024225045 -0.75846046710231441 0.38764434372266776 0.35146092398836898 0.42398156574194723 0.22075163388123062;-0.91563562409358346 -0.44508651587786074 -0.068337983382481801 -0.27404846930014065 -0.10676040597669489 -0.26268540695698062 -0.55453042266593799 0.19235252529647681 0.34029808478873019 0.31824546988225039 -0.52078585039494651 -0.90068336241665048 -0.23354673420961186 -0.56979335226812233 0.96102583623874926;0.44567359891383168 -0.55026582811417213 0.14715028308072378 0.22582582464031295 -0.69159188476660971 -0.72365513147888549 0.40464007407871411 -0.44411879867900794 0.38435408953753669 -0.70049532228909095 -0.1780717613662382 -0.1983998037782336 -0.63230219622721529 0.57739369805671414 -0.61511489146046461;-0.56108679547518281 -0.70321078530444026 -0.55633850843522969 0.20849034802395 -0.69455632159480984 -0.29078099308418404 0.27116572830144708 -0.53111864868311964 0.40920792536286554 0.68745820084654985 0.51161063415955488 -0.54091518293949226 -0.11182341279705985 0.7063836459633267 -0.38556507671408363;-0.85785918119219429 0.43629171824304558 0.3452295855129846 -0.46941350804124915 -0.35321232985897871 0.78481977714958173 0.49590913737601872 -0.84690453322172399 0.33889530224586839 -1.0180187362282958 -0.56262665949975399 0.26403337966750079 0.015694338376603612 0.062192410217832041 0.19467367863953547;-0.56620344476045481 -0.55374435986049342 0.27649173047181569 0.77645849048658377 -0.040090521267623025 -0.24376368146323624 0.43888434815270572 -0.67090476327128634 -0.47473539606264686 0.22158919820853162 0.68703714085690637 0.42902225598752319 -0.38955524967620725 -0.12457609187794419 -0.69264792780961004;-0.71068788181340214 -0.39756988730807369 0.56002448627678691 0.33449290288994199 0.12747609702751506 0.52247722475582448 -0.3460701380293485 0.36141426719685599 0.12494701024862857 0.28425210610091528 0.93066507782310171 0.70080895401797672 0.68250090814473696 -0.094412622425667586 -0.53664386931364372;-0.87713973651146881 0.84111206827422647 -0.40210646087563684 -0.051908088242604192 -0.4998211110151688 0.39657034104722555 0.063238504842316898 0.81842246341809222 -0.97204648987743525 -0.24081980992218566 -0.2238065942986919 0.47503000768114279 -0.72627073218211735 0.4754228689761415 -0.6927688918836642;0.81695634510774839 0.42449196531675054 -0.54013599354165454 0.57682274043504045 1.0169972161728811 1.1566011792599804 0.64567864415771914 0.35590565087376463 0.71894762387478339 -0.16939288218050313 0.92360901191315603 -0.0011984855325623545 -0.17927452462241042 -0.54878031209922651 0.41068444576566582;-0.40745487150092324 -0.30878491482699527 -0.55434224890748829 0.23010726164853146 0.64420569110182035 -0.50509694491173829 0.22308319475384139 -0.52894401840722627 0.27405975246912467 -0.30026871293715357 -0.59380789776016851 -0.59620005060444969 0.78876081085565652 -0.87796378954615106 -0.23210164128840827;0.66267308409643122 0.29316656834734439 -0.16456883676353523 -0.729423230090953 -0.095315360624131748 -0.59770722537329235 0.78312981757515787 0.5927888043236611 0.23304881843327682 0.48444300053183109 0.49249304885036266 -0.7389006980647026 0.25548215142758857 0.62653934474712303 0.49111773197169828;0.31631028588103266 -0.76566070258438357 -0.30112838979446671 0.0084304481755416404 0.90289021378026268 -0.053930343820171187 -0.79809864346346926 0.17176430165367468 -0.6625622664122659 -0.34890389013436229 0.038718992253579866 0.73951295949493601 0.55089737110135883 0.8003973069957937 0.11106354264111271;0.43850411173698012 0.22942767206612674 -0.61864822034671607 0.61841796627634749 0.042256226448741802 0.25401758700229587 0.56601218249850849 -1.0743574289015658 0.27037642461607725 0.057403174933892465 0.16250433310955381 -0.81279418905520306 0.34706708096101418 0.24627314692874147 -0.48315953600796369;-0.26327818797247748 0.63534505587866363 0.75370816163646703 0.3348663421855142 -0.22549278028254854 0.56711055577798708 0.5726187735127124 -0.094287093159696134 0.50883862143186587 0.68719894090575528 0.01259531934237846 -0.88046079820712442 -0.73024899520481701 0.7760769176442045 0.33471816847508051;-0.2856583402608403 0.89021411726473776 -0.31474927101528227 0.26696926864278053 0.60095506337696247 -0.78149493304776174 -0.35501577186947825 -0.030110178880684235 -0.27781684842990595 0.038386921783520982 -0.52554105197779644 -0.21403717695377114 -0.14104814240797584 0.077284114585533081 -0.90605395082070928;-0.83020140013307309 -0.27981220080112157 -0.32435585236171127 -0.79847459783829156 -0.24652439686366578 -1.100411398032574 0.069816154909985065 0.0046039512837939903 -0.8312379201297756 0.43807754784049763 -0.41405442819935967 0.59666814496767795 0.11715782525215847 -0.89395961503254817 0.45045686431881843;0.021460176987598435 -0.094463370193272847 0.26750811717412404 0.54943159270716269 -0.71048342810593568 -0.272477899406323 -0.15893693648254781 -0.20326181135672425 0.71342832276754387 0.71903275569764935 0.26378558809100316 0.41251304039233544 -0.81474781793362205 -0.11489468208946851 1.0102900176211014;-0.46549033812000218 0.44856919755060337 -0.60642922765064489 -0.029351943863581122 1.0055125288680009 0.82943672063092377 -0.46372062420158122 0.60069240345248409 0.5426836041930958 -0.6922125554530002 0.56908641325902665 -0.19387137326000128 0.35736374878509869 0.57348736773172926 -0.38637697597868553;-0.43801830309031148 0.43408488420626806 -0.69901573968770125 0.34343029766115202 -0.87819359100339267 -0.096476933419520308 0.15101701561517133 -0.6794141670734275 -0.084979018046100821 -0.43679777622461363 0.36364757294477401 1.0030925874646606 -0.39761945577359437 0.45810995533848203 0.015627211701841458;-0.67651352437386381 -0.073167966636632276 0.39559370229852853 0.43839779138994017 0.061642012295754611 0.36724047253161912 0.75334987322017444 0.80064039602517434 0.21815195116429581 -0.10985264900086165 -0.16715952758031033 0.32061902755038751 0.71275043378025349 0.68102591306314542 0.63818415622228686;0.10070220132950382 -0.31961519335274396 0.12477703355353745 0.57205681577139678 0.78484655461664454 -0.77436839569152349 -0.16623190091103571 0.5444298461327276 0.34936432888807695 0.38812919533269225 0.8610643769789571 0.23212998578972541 0.56954570551598305 0.37337381115977342 -0.33012967910762114;0.98009440907651735 -0.44388074642274578 -0.44872396268610676 -1.0009928985238497 0.56942918441651602 0.48400982928554975 0.22509181901479147 -0.24192414456728822 -0.60098122495914208 0.081524146993516039 0.1629790021116998 -0.057717494093266895 0.094312633414738806 0.26795958068799963 1.0626669215726017;0.36973984462699916 -0.72990487104219415 0.42065090668547789 0.32695755248493436 0.073542034707325607 0.098169117697668035 -0.65333899924170669 0.26989595870985589 0.84811036700292963 0.47521407624509926 -0.4872016192310818 0.76708652230630747 -0.34148189449604671 -0.25291132201499872 -0.85257864076005385;-0.92910908484559029 -0.17837309816053992 -0.2455831251475161 0.022503332779908708 -0.24222868244316087 -1.0973754148744912 -0.78693821555328258 -0.50832408608206425 0.19883894973260985 -0.81325016918019299 0.36380422842543797 0.45881288632712131 0.59574251970381575 -0.47892142493866363 0.61209125047371615;0.41188501662542953 -0.87425172109899951 -0.10686929062473562 -0.84113226832229893 -0.11768464730837963 0.36224103606811442 -0.68774902277698446 -0.87892512750548457 -0.62173761467728583 -0.75063483800720843 -0.36628151706471446 -0.5858347446353569 -0.7399705726674668 0.39061847502795438 -0.42538034792002621;-0.44655868029714268 -0.2815780478411663 -0.21015648252422831 -0.51045819456230324 0.53648203561308894 1.1259912296850607 -1.0023305103665587 -0.069858793873042418 -0.47223721829778498 0.84401492616780793 0.42842370639681787 -0.74589588706431342 -0.41270228376951412 -0.41736285360252834 0.48907388216704611;-0.69114679211695684 0.52431490850191698 -0.44539607927082536 -0.62435390483425934 -0.26579857844410809 -0.5860106690928597 -0.3728615041870818 0.56348119390219475 0.52416385210937122 0.52647728600757404 0.84600264399689107 0.34710904256984998 0.22532571383164304 -0.70619083076796596 0.50923477538371176;-0.074188578951919493 0.058595236260328171 -1.0666319745929309 0.13072802963322208 -0.71268807903957954 -0.57928668422936691 -0.78256097116354706 0.53633996305605014 -0.39199230408596392 0.77597910098493972 -0.59320294791965078 -0.11169996811298913 0.033250606238725312 0.90517872320055981 -0.91410461949515487;-0.20463952302682162 0.58150836105507175 -0.12531536286839856 -0.19969390107769616 -0.21403286688049675 -0.82485737065116171 -0.62203888171379962 0.79514065857956162 -0.5620796511285745 1.0416972736303913 0.61354372166290327 -0.61294461156838431 -0.63559060016457258 -0.35726680322372861 0.8850278956713663;0.12235936120815728 -0.48436986566561702 -0.97424389077581386 -0.48040825916199603 -0.1336370814059169 0.40222243538959496 -0.41396138280817013 -0.28045501215086144 0.77161363099254854 0.55798555798558447 0.34863154366791704 -0.021874573958162301 -0.44032672265269929 -0.74989038387811335 -0.34519571015767497;0.66250288460605944 0.82303532606296015 -0.074154363090844833 0.76791411209290195 0.057021169569847915 -0.5934224970633708 0.84702472820473929 -0.19321023025736994 0.29960267574058747 -0.29333365361131791 -0.49658084387545959 -0.12915204990386819 0.27031834404895583 -0.7433949122995438 0.57186228023010921;-0.50393238124282558 -0.63953245414797766 0.29781575121238446 -0.37005489624670446 0.14290669891160543 0.84158272494324771 -0.11401886601038447 -0.60948972049833638 0.8519897252118489 -0.61266616582265387 -0.43219661019757982 -0.83497056352213406 -0.58192131221305821 0.32467946428914701 0.67403715625503735;-0.0010298098996517346 -0.25150747555960767 0.30152215014332484 -0.20326662603907786 0.2223932866327015 -1.0762669089429768 -0.10542391356670723 -0.10949139471873789 -0.39900553793279847 0.66042571332756739 0.91599958713141016 1.3589129881017032 -0.99293639073958018 -0.15895144520606264 0.11732486513711501;-0.8248997650028751 0.33762208739090716 -0.973469269646138 -0.40487234328394583 -0.3774373612864087 -0.8725783878790857 -0.46143760631654573 -0.094355662232595922 0.50180674309652584 0.19730265155505425 -0.18210265085733623 -0.37076458554867869 -0.7143408951446335 -0.43560290439190791 0.38929880162221042;-0.21837401572819726 0.15990692576578133 0.39180147636789386 -0.8989326668069173 0.67250772969311767 0.5621583787961939 -0.28866557026913597 0.093993363540784206 -0.043832327114139778 0.23379102075268188 0.68504616860043477 0.61456575560533955 -0.61658082187459218 -0.10916958461122862 -0.78374232118295872;0.36400389352622137 0.0057250755771521087 -0.70137628845909317 0.13301977496392364 -0.31330153859505394 0.63593034020948014 -0.14352649898669784 -0.71547914497665177 0.27627089329068771 -0.00032286130072662744 0.63453704994768967 -1.003478353524059 -0.089024463768755224 0.022300604096659123 -0.70058229349993795;-0.75001949293343328 -0.32652644604004166 0.072467691504784229 -0.38693713259395274 -0.16939063954240069 0.053134210863786745 0.70627077004577576 -0.65390056075116099 -0.73218664829389846 0.39085161036825372 -0.78541168654850135 -0.20191359013916901 0.54059255038313792 -0.37919821627946015 0.55849726195940064;0.3692231092455705 -0.66697864852412225 0.28649122029169549 -0.11921774465995363 0.016147934214590497 0.67906815197580572 0.00064622350172949435 -0.22488488823273448 0.10347556240333024 -0.93540523829880096 0.54123734432986237 -0.94460518728011544 0.68666975909470263 0.036744600891304095 -0.94989937906025323;-0.44719504167637275 -0.38833806247382208 0.45816455422862501 0.81091103277575594 -0.83348763530044256 -0.015295115665387842 0.20364531289545504 0.57704717664624383 0.15242699439076662 0.076812771346935024 0.30337650918491271 -0.24948786759884545 -0.62468823138806129 -0.8672399572450733 0.33748157043894567];
  
  % Layer 2
  b2 = [0.04093135691718805;-0.49260008797799426];
  LW2_1 = [0.64817586268372085 -0.0016872721988190381 0.44765740250916508 0.9150003477749028 0.738785661154856 -0.56877015512143514 0.36523260495273108 0.95630415537424152 0.64636395445242023 0.49258091620816241 0.71009474776282866 0.52917206146238238 -0.51387603239441426 -0.54208077649714304 -0.13763051112237815 -1.4467405878415178 -0.54632495401526948 0.62380930005774604 -0.46488451212260257 -0.81176019664781507 0.091669746673720437 0.97251284022528584 0.20613566947736314 -0.25539916994568412 -0.64028010339828212 -0.59944540524086054 0.72513562241650409 -0.60628671906046183 -0.90158921971972805 0.82798176085625663 0.32959040998787037 -0.13620711443230307 -0.069080782029281959 0.20159074897450938 -1.0436132180151729 -0.55625645251885558 -0.97329035478914039 0.73446583157308631 0.83406482789224023 0.23128781906813858 -0.832439123425881 0.62277465439802082 0.71471324979086448 1.1518378016972071 0.63883054144693396 -0.74676617024137948 -0.12259181191460855 0.27274068603187795 -0.29353418787668262 0.37812390429187032 -0.77523666143424808 0.31450724451834589 -0.89162972693491738 -0.11011993150156171 0.26934485082445458 -0.51530494552575334 -1.0475416597049394 -0.28184776093773523 0.91641695919084798 -0.45237829131426333 0.93300878050918423 -0.2418026293242948 0.046464117533564331 -1.0009680872384783 0.63903031944208921 -0.59344809834597723 0.59518671197830109 -0.70423437347305928 0.94930032896485261 0.89703451866787987 0.15087926146184241 -0.65069104611905226 0.450853239325197 -0.43795231272138585 -1.1692210694031084 -0.62039075984565162 1.6024181640344957 0.053220131273660216 0.34419254357536749 0.92603773832984704 0.00024796971489428072 -0.13894514256070073 -1.0364930486566932 0.27719474725844145 -0.30448388950794358 -0.59953105886600078 1.1585285437970732 -0.29832807922254334 -0.88195248426531825 -0.50573733509265362 -0.68182531150833992 -0.0065609528075258562 -0.66265172346003742 -0.22698821745234629 0.86063653193283918 -0.15805395908006142 -0.11374245019409937 -0.96690704433394192 -0.60053980798029793 -0.47878079967981207 0.88690591500718774 0.39486594467253067 0.46008129909423151 0.25718872192206488 -0.025737780996138396 -0.039168635774625093 1.1737213699545082 -0.8952424786052311 -0.11682752309116751 -0.35424947420799274 -0.057437722031296219 -0.095606767448669805 0.70166571165677483 0.072403119339621555 0.54120036352902634 -0.88522474852110533 0.53608972205604066 0.62102151527079508 0.94202633682785264 -0.40669843545310236 0.35118711742816561 0.55802180466019646 -0.2388568864233975 -0.421548213921766 -0.087810670091912457 0.31781128163335809 -0.091030169226790192 -0.56299766802327478 0.3247563088485671 0.57862812670600872 0.44789759873744095 0.14426321127214745 -0.27226809966312027 0.47365944469185089 -0.72773618708400889 -0.18442672046079844 0.37965919340385212 0.160097754857768 0.46740312356422581 -0.85846560306422348 0.35635795291360878 0.13926743147649442 -0.98537312254822096 -1.2275876902019056 -0.93595055964796003 0.81423754755676925 -0.74069263857981604 0.14741134298769373 0.49617287160744017 0.22424712867403085;-0.66402591539576938 -0.33255925456520508 -0.29088022601636926 -0.76565053594204524 0.73846409269026303 -1.0145394910861858 -1.1026683237962511 0.94623829125373415 -0.43002263393171608 1.1062852091390896 0.59378442190276404 0.78463332732515156 -0.85964983592836186 -0.10623308128659925 0.88332681198288765 -0.15357266317338533 -0.80354054473963932 -0.078553828911340912 -0.91214280761995647 0.66449342270457668 0.46340091438220016 -0.32284620641768413 0.82722790610387154 0.19116233721309364 0.80877802875840388 -0.26721321954374427 -0.00058248834189425199 -0.88513804939166174 -0.72324739000260618 0.30797135509302587 0.91424131264007424 0.83597964538572378 0.5219826398659867 1.0244439096977149 1.0794452413157047 -1.0087957434998422 -0.37950623243708831 -0.35697588922681117 -1.0197145224389128 -0.60548771338752516 0.37945289247155894 0.75429177113834234 -0.23835793912753578 0.084548265557877839 -0.96908560621325923 0.54831831860195746 -0.036575677097122165 -1.2753124687539608 -0.73175242451655431 -0.026644201008064021 -0.23596604343444738 -0.015835313613474504 -0.93739561428141172 0.25871134674243101 1.2435715527262683 -0.60085344696575349 0.51776047167243777 0.61904407114901583 0.80356850222712928 0.30776970829320116 0.83561657925733623 -0.74219459715300218 0.10793300346352627 0.7156541324833583 -0.19942219564232086 0.75469321444446569 0.10678599895751235 1.1145386972567257 -0.66798253583345635 -0.93701573444088759 -0.84579042610581068 0.5111607619921692 -0.81577477910670371 -0.78725898903464009 0.57323661609191534 0.63538393475212473 0.31475212639929956 0.16805555533524549 -0.57979735023079526 -0.2362088202764428 0.73315494287374849 -0.74239016752801146 0.29447080043991797 0.53202889983851587 -0.32034238969266732 -0.32641255280338854 1.3989389369801941 0.3525146463115808 -0.97414320139594823 0.17521082255054563 -0.60603977930985264 0.028204287634491836 0.73486632417870057 0.23897207501827436 0.53091242123178162 0.73092450702949641 0.21991049812134603 1.7322024662141349 0.90999483710461015 -0.068259038883762224 -0.69413607346802997 1.0591962519667089 -0.99623538813520407 -0.51662528682273945 -0.36627426249898348 -0.61762531745033045 -0.20344534318500765 -0.71340110495308862 0.85666168585487301 0.4841941329337538 -0.73554929547226089 -0.23340726259574748 -0.5402429108535155 0.13388465021870968 0.063702033296442528 -0.47620184336609794 -0.80317174444214401 -0.322410871001719 1.1486372121647999 -1.6418958096153586 0.26917042367063743 -0.018277768219127494 0.6491477802133403 0.77126244650098796 0.69759860829256282 -1.0214636893134736 1.1697741445694712 -0.45757940627429211 0.86200039532815254 0.032545178787076898 0.46306671665001919 0.6450053949408121 1.1129572769756593 -0.93188734344082291 -0.98059905821368543 -0.98800633884170741 1.1556199766196313 0.99249998850496779 -1.3515055569410253 1.1279522912762745 0.80568988678559761 -0.72153904929425594 -0.96848691116305785 -0.5022697948678313 -0.14403864947042522 -0.40007485373701596 0.68363363166279079 0.21668729921277399 -0.0072188343579514536 0.066456215558463871];
  
  % Output 1
  y1_step1_ymin = -1;
  y1_step1_gain = [2;2];
  y1_step1_xoffset = [0;0];
  
  % ===== SIMULATION ========
  
  % Dimensions
  Q = size(x1,2); % samples
  
  % Input 1
  xp1 = mapminmax_apply(x1,x1_step1_gain,x1_step1_xoffset,x1_step1_ymin);
  
  % Layer 1
  a1 = tansig_apply(repmat(b1,1,Q) + IW1_1*xp1);
  
  % Layer 2
  a2 = repmat(b2,1,Q) + LW2_1*a1;
  
  % Output 1
  y1 = mapminmax_reverse(a2,y1_step1_gain,y1_step1_xoffset,y1_step1_ymin);
end

% ===== MODULE FUNCTIONS ========

% Map Minimum and Maximum Input Processing Function
function y = mapminmax_apply(x,settings_gain,settings_xoffset,settings_ymin)
  y = bsxfun(@minus,x,settings_xoffset);
  y = bsxfun(@times,y,settings_gain);
  y = bsxfun(@plus,y,settings_ymin);
end

% Sigmoid Symmetric Transfer Function
function a = tansig_apply(n)
  a = 2 ./ (1 + exp(-2*n)) - 1;
end

% Map Minimum and Maximum Output Reverse-Processing Function
function x = mapminmax_reverse(y,settings_gain,settings_xoffset,settings_ymin)
  x = bsxfun(@minus,y,settings_ymin);
  x = bsxfun(@rdivide,x,settings_gain);
  x = bsxfun(@plus,x,settings_xoffset);
end
